{"learner":{"attributes":{"scikit_learn":"{\"_estimator_type\": \"regressor\"}"},"feature_names":[],"feature_types":[],"gradient_booster":{"model":{"gbtree_model_param":{"num_parallel_tree":"1","num_trees":"153"},"iteration_indptr":[0,1,2,3,4,5,6,7,8,9,10,11,12,13,14,15,16,17,18,19,20,21,22,23,24,25,26,27,28,29,30,31,32,33,34,35,36,37,38,39,40,41,42,43,44,45,46,47,48,49,50,51,52,53,54,55,56,57,58,59,60,61,62,63,64,65,66,67,68,69,70,71,72,73,74,75,76,77,78,79,80,81,82,83,84,85,86,87,88,89,90,91,92,93,94,95,96,97,98,99,100,101,102,103,104,105,106,107,108,109,110,111,112,113,114,115,116,117,118,119,120,121,122,123,124,125,126,127,128,129,130,131,132,133,134,135,136,137,138,139,140,141,142,143,144,145,146,147,148,149,150,151,152,153],"tree_info":[0,0,0,0,0,0,0,0,0,0,0,0,0,0,0,0,0,0,0,0,0,0,0,0,0,0,0,0,0,0,0,0,0,0,0,0,0,0,0,0,0,0,0,0,0,0,0,0,0,0,0,0,0,0,0,0,0,0,0,0,0,0,0,0,0,0,0,0,0,0,0,0,0,0,0,0,0,0,0,0,0,0,0,0,0,0,0,0,0,0,0,0,0,0,0,0,0,0,0,0,0,0,0,0,0,0,0,0,0,0,0,0,0,0,0,0,0,0,0,0,0,0,0,0,0,0,0,0,0,0,0,0,0,0,0,0,0,0,0,0,0,0,0,0,0,0,0,0,0,0,0,0,0],"trees":[{"base_weights":[3.8284578E-3,-8.472968E-3,8.604859E-2,2.9141102E-6,-1.5191099E-1,-1.5135013E-2,2.0635705E-1,-5.3873863E-3,2.8104198E-1,-2.7451682E-1,1.0834385E-1,-5.463196E-2,4.254053E-1,1.243833E-1,5.026284E-1,1.053293E-3,-2.3941173E-1,4.7063E-1,-2.7923713E-2,-4.0472928E-1,4.2597003E-2,3.596177E-1,-1.8269572E-1,2.9964305E-2,-2.1422452E-1,7.5299245E-1,2.9364306E-2,-3.4920892E-1,1.7721523E-1,-1.9099448E-3,5.9389484E-1,6.765648E-2,-1.766211E-2,-1.7740054E-1,-1.875199E-2,6.9944775E-1,1.4089233E-1,1.7780854E-1,-5.1219356E-3,8.157055E-3,-4.5368806E-1,-1.6941309E-2,6.98444E-3,8.751224E-2,7.5057864E-1,2.725749E-1,-3.7843272E-1,-2.8595832E-1,1.01537906E-1,-3.109314E-1,4.4527665E-2,6.110684E-3,1.7502509E-2,-2.542071E-3,3.4225804E-3,-6.76609E-2,-1.1329463E-2,4.254595E-1,8.4465496E-2,2.7658987E-1,7.599313E-1,2.6939513E-2,2.6581424E-1,3.248914E-2,-4.6884716E-2,-4.4238336E-2,-4.369019E-1,1.6255849E-3,8.807544E-1,-1.4260316E-3,2.5249135E-1,3.2310688E-4,4.308473E-3,-5.2354765E-1,1.1562757E-1,-8.300395E-2,4.811471E-3,5.120789E-3,-8.8961065E-2,1.5976358E-2,5.296926E-3,1.7209004E-3,7.4495776E-3,-1.2984517E-2,-9.3664646E-2,-6.503987E-2,-1.4480705E-2,-1.0125897E-2,1.23096146E-1,-4.2619848E-1,1.9257838E-2,-8.243482E-3,1.4689039E-1,1.354813E-3,-5.7529146E-3,3.379349E-1,1.673299E-2,1.7994083E-1,-2.1145763E-1,2.0373896E-2,8.67283E-3,4.7881883E-3,8.794709E-1,5.5252644E-4,-1.4609283E-2,2.1457893E-4,6.800365E-3,-9.428692E-4,1.3755683E-3,-1.8825284E-3,-2.4810774E-4,1.0350298E-3,-9.240685E-3,-5.3495576E-4,-9.553349E-3,1.6154276E-2,5.120498E-3,9.968957E-4,5.777471E-3,3.5348341E-3,-9.477692E-3,-2.96683E-3,4.397025E-3,-3.6537915E-3,1.1995789E-3,2.1823866E-3,-3.5465402E-3,3.2333925E-3,-4.0091653E-3,-2.634996E-3,7.058237E-3,-5.0304E-3,2.6475235E-3,-3.7106287E-3,-9.335964E-3,3.098903E-3,-5.3053685E-3,-3.5562413E-4,6.1195474E-3,6.8072313E-3,-1.2967921E-3,1.7286128E-3,9.325699E-3,-7.21501E-3,1.7197509E-3,2.99438E-3,-2.3945624E-3,4.8030233E-3,1.5714556E-2],"categories":[],"categories_nodes":[],"categories_segments":[],"categories_sizes":[],"default_left":[0,0,0,0,0,0,0,0,0,0,0,0,0,0,0,0,0,0,0,0,0,0,0,0,0,0,0,0,0,0,0,0,0,0,0,0,0,0,0,0,0,0,0,0,0,0,0,0,0,0,0,0,0,0,0,0,0,0,0,0,0,0,0,0,0,0,0,0,0,0,0,0,0,0,0,0,0,0,0,0,0,0,0,0,0,0,0,0,0,0,0,0,0,0,0,0,0,0,0,0,0,0,0,0,0,0,0,0,0,0,0,0,0,0,0,0,0,0,0,0,0,0,0,0,0,0,0,0,0,0,0,0,0,0,0,0,0,0,0,0,0,0,0,0,0,0,0,0,0],"id":0,"left_children":[1,3,5,7,9,11,13,15,17,19,21,23,25,27,29,31,33,35,37,39,41,43,45,47,49,51,53,55,57,-1,59,61,63,65,-1,67,69,71,-1,-1,73,75,-1,77,79,81,83,85,87,89,91,-1,-1,-1,-1,93,-1,95,97,99,101,103,105,107,109,111,113,-1,115,-1,117,-1,-1,119,121,123,-1,-1,125,-1,-1,-1,-1,-1,127,129,-1,-1,131,133,135,-1,137,-1,-1,139,-1,141,143,145,-1,-1,147,-1,-1,-1,-1,-1,-1,-1,-1,-1,-1,-1,-1,-1,-1,-1,-1,-1,-1,-1,-1,-1,-1,-1,-1,-1,-1,-1,-1,-1,-1,-1,-1,-1,-1,-1,-1,-1,-1,-1,-1,-1,-1,-1,-1,-1,-1],"loss_changes":[3.7925606E0,3.9658217E0,5.9436665E0,4.6688747E0,5.837137E0,4.65164E0,5.353365E0,4.5582542E0,3.4105606E0,5.1374683E0,4.3804083E0,3.3141477E0,2.832124E0,4.4655447E0,2.7828255E0,3.670907E0,4.3528357E0,2.6176472E0,1.4053583E0,4.118682E0,8.5410964E-1,3.3385582E0,2.598324E0,3.6695223E0,2.1408103E0,1.043899E0,3.9818484E-1,1.6938293E0,3.6249723E0,0E0,2.0025482E0,5.205015E0,3.3708231E0,2.6414666E0,0E0,2.1971521E0,4.292707E-1,1.8423563E-1,0E0,0E0,3.4013977E0,7.0267123E-1,0E0,8.2400876E-1,9.3859243E-1,2.2755748E-1,2.291746E0,3.9149444E0,2.1269197E0,2.3679242E0,1.421626E0,0E0,0E0,0E0,0E0,4.9940255E-1,0E0,1.9033732E0,3.3436928E0,1.0291021E0,1.2503891E0,3.411013E0,4.1629496E0,3.9453068E0,3.1416981E0,2.9472373E0,1.5277491E0,0E0,6.6196156E-1,0E0,1.9073421E-1,0E0,0E0,3.2274532E0,5.038227E-1,6.3096905E-1,0E0,0E0,3.7019542E-1,0E0,0E0,0E0,0E0,0E0,6.221183E-1,1.1667135E0,0E0,0E0,2.2038674E0,1.1964083E0,1.0557731E0,0E0,8.129322E-1,0E0,0E0,1.3064322E0,0E0,2.5186126E0,2.1550992E0,2.7102128E-1,0E0,0E0,7.1827507E-1,0E0,0E0,0E0,0E0,0E0,0E0,0E0,0E0,0E0,0E0,0E0,0E0,0E0,0E0,0E0,0E0,0E0,0E0,0E0,0E0,0E0,0E0,0E0,0E0,0E0,0E0,0E0,0E0,0E0,0E0,0E0,0E0,0E0,0E0,0E0,0E0,0E0,0E0,0E0,0E0,0E0,0E0,0E0,0E0,0E0,0E0],"parents":[2147483647,0,0,1,1,2,2,3,3,4,4,5,5,6,6,7,7,8,8,9,9,10,10,11,11,12,12,13,13,14,14,15,15,16,16,17,17,18,18,19,19,20,20,21,21,22,22,23,23,24,24,25,25,26,26,27,27,28,28,30,30,31,31,32,32,33,33,35,35,36,36,37,37,40,40,41,41,43,43,44,44,45,45,46,46,47,47,48,48,49,49,50,50,55,55,57,57,58,58,59,59,60,60,61,61,62,62,63,63,64,64,65,65,66,66,68,68,70,70,73,73,74,74,75,75,78,78,84,84,85,85,88,88,89,89,90,90,92,92,95,95,97,97,98,98,99,99,102,102],"right_children":[2,4,6,8,10,12,14,16,18,20,22,24,26,28,30,32,34,36,38,40,42,44,46,48,50,52,54,56,58,-1,60,62,64,66,-1,68,70,72,-1,-1,74,76,-1,78,80,82,84,86,88,90,92,-1,-1,-1,-1,94,-1,96,98,100,102,104,106,108,110,112,114,-1,116,-1,118,-1,-1,120,122,124,-1,-1,126,-1,-1,-1,-1,-1,128,130,-1,-1,132,134,136,-1,138,-1,-1,140,-1,142,144,146,-1,-1,148,-1,-1,-1,-1,-1,-1,-1,-1,-1,-1,-1,-1,-1,-1,-1,-1,-1,-1,-1,-1,-1,-1,-1,-1,-1,-1,-1,-1,-1,-1,-1,-1,-1,-1,-1,-1,-1,-1,-1,-1,-1,-1,-1,-1,-1,-1],"split_conditions":[1.2424417E0,1.4734534E0,-1.5236053E-1,1.5180591E0,6.360095E-2,9.336556E-1,2.3044212E-1,1.3210672E0,-1.12260394E-1,-1.0646428E-1,1.2847377E0,-1.1520563E-1,-3.5001412E-1,-9.2330223E-1,-2.0670408E-1,-2.0208454E-1,6.106117E-1,-3.0360347E-2,3.662672E-1,-2.046725E0,9.4231963E-1,-2.080464E-1,-3.4517932E-1,-3.0724734E-1,-5.0263748E-2,1.7220192E-1,-1.8365668E-1,2.817546E-1,-1.3004027E-1,-1.9099448E-3,-3.1358966E-1,1.085007E0,-1.0802988E-1,4.9684783E-3,-1.875199E-2,-2.4603088E-1,-8.088033E-1,-1.1298716E-1,-5.1219356E-3,8.157055E-3,1.5353711E0,5.8953816E-1,6.98444E-3,6.9500014E-2,-5.10551E-3,-3.7010822E-1,-9.751747E-2,4.8999524E-1,-1.723659E0,6.986397E-1,-1.0394639E0,6.110684E-3,1.7502509E-2,-2.542071E-3,3.4225804E-3,5.053041E-1,-1.1329463E-2,3.4234947E-1,5.6654865E-1,7.960921E-2,-4.4980952E-1,3.8687997E0,-3.4770566E-1,-3.421699E-1,-5.310852E-1,7.847158E-1,-1.1890197E0,1.6255849E-3,1.2184554E-1,-1.4260316E-3,-1.609052E-1,3.2310688E-4,4.308473E-3,-9.3029994E-1,-1.9285393E-1,-1.879449E-1,4.811471E-3,5.120789E-3,-3.226849E-1,1.5976358E-2,5.296926E-3,1.7209004E-3,7.4495776E-3,-1.2984517E-2,4.9974605E-1,-3.2092768E-1,-1.4480705E-2,-1.0125897E-2,-2.0685363E-1,-4.1334227E-1,3.4324324E-1,-8.243482E-3,4.318875E-1,1.354813E-3,-5.7529146E-3,1.5818462E0,1.673299E-2,1.704539E0,-9.216984E-2,-8.602453E-1,8.67283E-3,4.7881883E-3,-1.7935284E0,5.5252644E-4,-1.4609283E-2,2.1457893E-4,6.800365E-3,-9.428692E-4,1.3755683E-3,-1.8825284E-3,-2.4810774E-4,1.0350298E-3,-9.240685E-3,-5.3495576E-4,-9.553349E-3,1.6154276E-2,5.120498E-3,9.968957E-4,5.777471E-3,3.5348341E-3,-9.477692E-3,-2.96683E-3,4.397025E-3,-3.6537915E-3,1.1995789E-3,2.1823866E-3,-3.5465402E-3,3.2333925E-3,-4.0091653E-3,-2.634996E-3,7.058237E-3,-5.0304E-3,2.6475235E-3,-3.7106287E-3,-9.335964E-3,3.098903E-3,-5.3053685E-3,-3.5562413E-4,6.1195474E-3,6.8072313E-3,-1.2967921E-3,1.7286128E-3,9.325699E-3,-7.21501E-3,1.7197509E-3,2.99438E-3,-2.3945624E-3,4.8030233E-3,1.5714556E-2],"split_indices":[270,169,102,171,134,189,45,259,299,208,136,57,78,275,57,90,288,192,297,205,10,309,177,82,2,317,90,119,203,0,177,72,236,200,0,313,262,253,0,0,136,234,0,178,57,166,16,19,198,25,319,0,0,0,0,118,0,222,275,196,245,14,298,121,165,316,312,0,211,0,35,0,0,317,60,57,0,0,45,0,0,0,0,0,224,133,0,0,46,37,88,0,202,0,0,270,0,284,162,10,0,0,84,0,0,0,0,0,0,0,0,0,0,0,0,0,0,0,0,0,0,0,0,0,0,0,0,0,0,0,0,0,0,0,0,0,0,0,0,0,0,0,0,0,0,0,0,0,0],"split_type":[0,0,0,0,0,0,0,0,0,0,0,0,0,0,0,0,0,0,0,0,0,0,0,0,0,0,0,0,0,0,0,0,0,0,0,0,0,0,0,0,0,0,0,0,0,0,0,0,0,0,0,0,0,0,0,0,0,0,0,0,0,0,0,0,0,0,0,0,0,0,0,0,0,0,0,0,0,0,0,0,0,0,0,0,0,0,0,0,0,0,0,0,0,0,0,0,0,0,0,0,0,0,0,0,0,0,0,0,0,0,0,0,0,0,0,0,0,0,0,0,0,0,0,0,0,0,0,0,0,0,0,0,0,0,0,0,0,0,0,0,0,0,0,0,0,0,0,0,0],"sum_hessian":[3.748E3,3.261E3,4.87E2,3.08E3,1.81E2,2.65E2,2.22E2,3.023E3,5.7E1,1.23E2,5.8E1,2.44E2,2.1E1,1.75E2,4.7E1,2.943E3,8E1,3.5E1,2.2E1,8.7E1,3.6E1,3.1E1,2.7E1,1.6E2,8.4E1,1.1E1,1E1,1.7E1,1.58E2,6E0,4.1E1,6.45E2,2.298E3,7.6E1,4E0,2E1,1.5E1,1.3E1,9E0,4E0,8.3E1,3.2E1,4E0,1.9E1,1.2E1,8E0,1.9E1,2.9E1,1.31E2,6.1E1,2.3E1,6E0,5E0,5E0,5E0,1E1,7E0,4.2E1,1.16E2,1.5E1,2.6E1,5.36E2,1.09E2,8.46E2,1.452E3,5.1E1,2.5E1,5E0,1.5E1,5E0,1E1,5E0,8E0,7.4E1,9E0,2.7E1,5E0,8E0,1.1E1,7E0,5E0,5E0,3E0,7E0,1.2E1,2.2E1,7E0,3E0,1.28E2,4.5E1,1.6E1,3E0,2E1,7E0,3E0,3.8E1,4E0,8.8E1,2.8E1,8E0,7E0,6E0,2E1,5.33E2,3E0,4.1E1,6.8E1,3.08E2,5.38E2,4.6E2,9.92E2,4.3E1,8E0,7E0,1.8E1,1.2E1,3E0,4E0,6E0,5E0,6.9E1,3E0,6E0,1.4E1,1.3E1,4E0,7E0,4E0,8E0,1.9E1,3E0,1E1,1.18E2,2E1,2.5E1,1.1E1,5E0,1.2E1,8E0,3.2E1,6E0,7.5E1,1.3E1,1.6E1,1.2E1,4E0,4E0,3E0,1.7E1],"tree_param":{"num_deleted":"0","num_feature":"330","num_nodes":"149","size_leaf_vector":"1"}},{"base_weights":[-5.8272365E-3,-1.8879537E-2,8.06027E-2,1.9603182E-2,-4.6791513E-2,1.6380487E-1,-3.4090593E-2,1.3487397E-2,1.3792447E-2,-8.887418E-3,-1.0204422E-1,5.942266E-1,1.2344361E-1,-3.2683146E-1,3.841824E-2,3.6363948E-2,-1.0291401E-1,-1.5691532E-1,2.295798E-2,-1.2724064E-1,9.490778E-2,1.7273279E-1,9.3758804E-1,-1.3507071E-1,2.0167327E-1,-4.4404906E-1,2.1219726E-1,-1.8569183E-1,1.04137346E-1,-2.1274777E-3,1.16612814E-1,-4.8739415E-1,-4.942484E-2,7.9903096E-2,-2.2160098E-1,4.570589E-2,-1.610544E-1,-1.5479411E-1,8.911427E-2,1.4674579E-1,-1.6640708E-2,-1.7687781E-3,9.610498E-3,1.8149622E-2,7.2017736E-3,-4.445818E-1,4.831178E-3,1.0641383E-1,4.5087698E-1,-3.2661957E-1,-1.733418E-2,6.732076E-3,1.6740036E-4,-4.629262E-1,1.4806448E-1,6.305362E-2,6.449143E-1,-2.2828575E-2,2.6000118E-1,4.5550615E-1,8.1660904E-2,4.8423694E-3,-5.976624E-1,3.316539E-1,-8.5141025E-2,-8.150434E-2,4.5865136E-1,-3.8567534E-1,-6.694444E-2,-1.5382664E-1,6.790447E-2,-3.295333E-1,2.4464706E-2,-5.610787E-1,-1.3467062E-1,1.7861977E-1,-4.105922E-1,-1.16669625E-1,2.9524824E-1,-2.3802038E-1,-1.2507048E-2,6.7246325E-2,-7.899431E-3,-1.3483444E-1,2.1180362E-1,2.8113129E-2,5.4419976E-1,-5.694261E-1,-1.5607756E-1,1.5448935E-3,-6.4301133E-1,-7.709E-3,7.538343E-3,1.8501996E-1,-6.825032E-2,1.6141899E-2,2.844704E-3,-1.4499547E-4,-5.2006175E-3,8.601893E-3,4.6751084E-4,1.1447558E-2,1.123035E-4,1.0679648E-2,9.832601E-4,-4.0329946E-3,-1.358882E-2,2.2475347E-3,1.5187654E-2,-8.558006E-3,-8.29794E-4,-3.4269544E-3,6.3355207E-3,1.0084841E-2,2.8070668E-3,-1.0279417E-2,-1.475631E-3,4.151979E-3,-3.1217802E-3,-6.112434E-4,-9.762759E-3,4.9336874E-3,8.5415464E-4,-6.77094E-3,2.1148096E-3,-5.2197445E-3,2.3638802E-3,-1.2517642E-2,-7.3340815E-4,-2.5325003E-3,3.4530126E-3,-1.8394854E-3,5.184135E-3,-1.397686E-2,4.677463E-4,5.0188205E-3,-4.1377363E-3,6.8169017E-3,-1.3375203E-3,-5.177815E-3,2.9221745E-4,-1.437656E-3,2.9276118E-3,-7.687665E-3,5.185527E-4,5.9779757E-4,6.5524466E-3,3.1343985E-3,-3.3765675E-3,2.9254914E-3,1.0985045E-2,-1.18627725E-2,-4.786978E-3,1.4067682E-3,-4.9797455E-3,-4.187636E-3,-1.3895835E-2,2.9283392E-3,-3.1625011E-3,4.193898E-3,-1.3605033E-3,-7.961788E-3,1.1362605E-4],"categories":[],"categories_nodes":[],"categories_segments":[],"categories_sizes":[],"default_left":[0,0,0,0,0,0,0,0,0,0,0,0,0,0,0,0,0,0,0,0,0,0,0,0,0,0,0,0,0,0,0,0,0,0,0,0,0,0,0,0,0,0,0,0,0,0,0,0,0,0,0,0,0,0,0,0,0,0,0,0,0,0,0,0,0,0,0,0,0,0,0,0,0,0,0,0,0,0,0,0,0,0,0,0,0,0,0,0,0,0,0,0,0,0,0,0,0,0,0,0,0,0,0,0,0,0,0,0,0,0,0,0,0,0,0,0,0,0,0,0,0,0,0,0,0,0,0,0,0,0,0,0,0,0,0,0,0,0,0,0,0,0,0,0,0,0,0,0,0,0,0,0,0,0,0,0,0,0,0,0,0,0,0],"id":1,"left_children":[1,3,5,7,9,11,13,15,-1,17,19,21,23,25,27,29,31,33,35,37,39,41,43,45,47,49,51,53,55,57,59,61,63,65,67,69,71,73,75,77,-1,-1,-1,-1,-1,79,81,83,85,87,-1,-1,-1,89,91,93,95,97,99,101,103,-1,105,107,109,111,113,115,117,119,121,123,125,127,129,131,133,135,137,139,-1,141,-1,143,145,147,149,151,153,-1,155,157,-1,159,161,-1,-1,-1,-1,-1,-1,-1,-1,-1,-1,-1,-1,-1,-1,-1,-1,-1,-1,-1,-1,-1,-1,-1,-1,-1,-1,-1,-1,-1,-1,-1,-1,-1,-1,-1,-1,-1,-1,-1,-1,-1,-1,-1,-1,-1,-1,-1,-1,-1,-1,-1,-1,-1,-1,-1,-1,-1,-1,-1,-1,-1,-1,-1,-1,-1,-1,-1,-1],"loss_changes":[4.1958327E0,3.4714274E0,4.6624365E0,6.834441E0,3.9217243E0,4.8430247E0,4.3851743E0,3.598607E0,0E0,5.2455792E0,3.79349E0,3.3114424E0,5.285346E0,2.6847553E0,2.4642375E0,3.4876084E0,4.5414577E0,3.0355005E0,3.8416426E0,4.0436544E0,5.1657834E0,1.4618214E0,6.2383175E-1,2.6435204E0,4.6998224E0,2.1123571E0,3.1796348E-1,3.5846338E0,2.825346E0,4.1516676E0,4.298061E0,2.5094895E0,2.6959305E0,2.666092E0,3.9073339E0,3.6247869E0,3.164924E0,4.82996E0,3.517279E0,3.320345E0,0E0,0E0,0E0,0E0,0E0,1.074285E0,1.3416728E0,3.7406235E0,2.154642E0,1.1533866E0,0E0,0E0,0E0,2.168634E0,8.807091E-1,1.9504018E0,1.278075E0,2.9190912E0,3.4311352E0,3.7232213E0,4.0593314E0,0E0,1.7597599E0,1.8434782E0,2.6867237E0,1.9418948E0,4.8350096E-1,5.3237724E0,3.268516E0,4.208718E0,2.678295E0,2.1070428E0,2.0675695E0,2.9180927E0,4.028535E0,2.6933858E0,2.3642163E0,1.8672998E0,2.508534E0,2.6696336E-1,0E0,6.9188577E-1,0E0,2.5269103E0,3.3605938E0,4.6147794E-1,1.9748049E0,3.0535603E-1,7.0871025E-1,0E0,1.0615692E0,4.853194E-1,0E0,1.2276852E0,1.860277E0,0E0,0E0,0E0,0E0,0E0,0E0,0E0,0E0,0E0,0E0,0E0,0E0,0E0,0E0,0E0,0E0,0E0,0E0,0E0,0E0,0E0,0E0,0E0,0E0,0E0,0E0,0E0,0E0,0E0,0E0,0E0,0E0,0E0,0E0,0E0,0E0,0E0,0E0,0E0,0E0,0E0,0E0,0E0,0E0,0E0,0E0,0E0,0E0,0E0,0E0,0E0,0E0,0E0,0E0,0E0,0E0,0E0,0E0,0E0,0E0,0E0,0E0,0E0,0E0,0E0,0E0,0E0,0E0],"parents":[2147483647,0,0,1,1,2,2,3,3,4,4,5,5,6,6,7,7,9,9,10,10,11,11,12,12,13,13,14,14,15,15,16,16,17,17,18,18,19,19,20,20,21,21,22,22,23,23,24,24,25,25,26,26,27,27,28,28,29,29,30,30,31,31,32,32,33,33,34,34,35,35,36,36,37,37,38,38,39,39,45,45,46,46,47,47,48,48,49,49,53,53,54,54,55,55,56,56,57,57,58,58,59,59,60,60,62,62,63,63,64,64,65,65,66,66,67,67,68,68,69,69,70,70,71,71,72,72,73,73,74,74,75,75,76,76,77,77,78,78,79,79,81,81,83,83,84,84,85,85,86,86,87,87,88,88,90,90,91,91,93,93,94,94],"right_children":[2,4,6,8,10,12,14,16,-1,18,20,22,24,26,28,30,32,34,36,38,40,42,44,46,48,50,52,54,56,58,60,62,64,66,68,70,72,74,76,78,-1,-1,-1,-1,-1,80,82,84,86,88,-1,-1,-1,90,92,94,96,98,100,102,104,-1,106,108,110,112,114,116,118,120,122,124,126,128,130,132,134,136,138,140,-1,142,-1,144,146,148,150,152,154,-1,156,158,-1,160,162,-1,-1,-1,-1,-1,-1,-1,-1,-1,-1,-1,-1,-1,-1,-1,-1,-1,-1,-1,-1,-1,-1,-1,-1,-1,-1,-1,-1,-1,-1,-1,-1,-1,-1,-1,-1,-1,-1,-1,-1,-1,-1,-1,-1,-1,-1,-1,-1,-1,-1,-1,-1,-1,-1,-1,-1,-1,-1,-1,-1,-1,-1,-1,-1,-1,-1,-1,-1],"split_conditions":[5.020975E-1,-1.8741243E-1,-1.8778403E-1,4.148601E0,-1.28715E-1,-3.851871E-1,-6.7123735E-1,5.5690527E-1,1.3792447E-2,-9.230743E-1,1.2574291E0,9.636542E-2,-3.668015E-1,1.2045377E-1,-1.2505381E0,5.740686E-1,-1.2557547E0,-6.177218E-1,5.024041E-1,1.0525045E0,2.440551E0,-1.837561E-1,-3.5277437E-2,-7.7713424E-1,-6.555596E-2,9.12944E-1,-1.2329379E0,4.8134986E-1,1.975633E0,2.5250113E-1,-1.1371833E0,-1.713169E0,-2.8922695E-1,4.7449034E-1,1.8266068E-1,-1.2427022E0,-1.4828582E-1,-2.0707418E-1,4.651006E-2,-3.3791104E-1,-1.6640708E-2,-1.7687781E-3,9.610498E-3,1.8149622E-2,7.2017736E-3,-2.5240317E-1,3.8471594E-2,-3.622016E-1,-2.031067E-1,-1.5754594E-1,-1.733418E-2,6.732076E-3,1.6740036E-4,-1.2823954E0,1.2217486E0,3.0213112E-1,-2.2616054E-1,1.1864018E0,-5.3785247E-1,4.2647442E-1,-1.7136718E0,4.8423694E-3,-9.3540084E-1,3.9547333E-1,-1.0116124E0,-7.609441E-1,4.2738438E-2,-1.618358E-2,-1.4965126E-1,6.409954E-2,-9.3316567E-1,-2.4354827E-1,-1.968804E-1,2.1863766E-1,1.8558695E0,-6.086677E-1,-3.469809E-1,7.062284E-1,5.691037E-1,7.698412E-2,-1.2507048E-2,-1.7819819E-1,-7.899431E-3,-9.3118316E-1,-2.6685095E-1,-4.5964548E-1,-1.0011072E0,-3.4158266E-1,1.5952057E-1,1.5448935E-3,-1.2616354E-1,-2.7841553E-1,7.538343E-3,9.519376E-1,-8.850068E-1,1.6141899E-2,2.844704E-3,-1.4499547E-4,-5.2006175E-3,8.601893E-3,4.6751084E-4,1.1447558E-2,1.123035E-4,1.0679648E-2,9.832601E-4,-4.0329946E-3,-1.358882E-2,2.2475347E-3,1.5187654E-2,-8.558006E-3,-8.29794E-4,-3.4269544E-3,6.3355207E-3,1.0084841E-2,2.8070668E-3,-1.0279417E-2,-1.475631E-3,4.151979E-3,-3.1217802E-3,-6.112434E-4,-9.762759E-3,4.9336874E-3,8.5415464E-4,-6.77094E-3,2.1148096E-3,-5.2197445E-3,2.3638802E-3,-1.2517642E-2,-7.3340815E-4,-2.5325003E-3,3.4530126E-3,-1.8394854E-3,5.184135E-3,-1.397686E-2,4.677463E-4,5.0188205E-3,-4.1377363E-3,6.8169017E-3,-1.3375203E-3,-5.177815E-3,2.9221745E-4,-1.437656E-3,2.9276118E-3,-7.687665E-3,5.185527E-4,5.9779757E-4,6.5524466E-3,3.1343985E-3,-3.3765675E-3,2.9254914E-3,1.0985045E-2,-1.18627725E-2,-4.786978E-3,1.4067682E-3,-4.9797455E-3,-4.187636E-3,-1.3895835E-2,2.9283392E-3,-3.1625011E-3,4.193898E-3,-1.3605033E-3,-7.961788E-3,1.1362605E-4],"split_indices":[89,154,317,152,189,100,195,328,0,40,151,228,177,13,73,61,173,119,265,132,110,288,5,26,255,220,7,259,245,299,220,193,27,58,278,44,277,299,144,14,0,0,0,0,0,221,35,210,35,214,0,0,0,227,124,279,56,158,183,297,259,0,206,107,54,119,110,104,291,321,18,305,247,85,150,328,210,138,134,57,0,79,0,127,232,151,176,53,196,0,209,61,0,232,218,0,0,0,0,0,0,0,0,0,0,0,0,0,0,0,0,0,0,0,0,0,0,0,0,0,0,0,0,0,0,0,0,0,0,0,0,0,0,0,0,0,0,0,0,0,0,0,0,0,0,0,0,0,0,0,0,0,0,0,0,0,0,0,0,0,0,0,0],"split_type":[0,0,0,0,0,0,0,0,0,0,0,0,0,0,0,0,0,0,0,0,0,0,0,0,0,0,0,0,0,0,0,0,0,0,0,0,0,0,0,0,0,0,0,0,0,0,0,0,0,0,0,0,0,0,0,0,0,0,0,0,0,0,0,0,0,0,0,0,0,0,0,0,0,0,0,0,0,0,0,0,0,0,0,0,0,0,0,0,0,0,0,0,0,0,0,0,0,0,0,0,0,0,0,0,0,0,0,0,0,0,0,0,0,0,0,0,0,0,0,0,0,0,0,0,0,0,0,0,0,0,0,0,0,0,0,0,0,0,0,0,0,0,0,0,0,0,0,0,0,0,0,0,0,0,0,0,0,0,0,0,0,0,0],"sum_hessian":[3.717E3,3.23E3,4.87E2,1.358E3,1.872E3,2.82E2,2.05E2,1.349E3,9E0,1.111E3,7.61E2,2.3E1,2.59E2,4E1,1.65E2,1.128E3,2.21E2,1.96E2,9.15E2,6.75E2,8.6E1,1.1E1,1.2E1,6E1,1.99E2,3.3E1,7E0,3.7E1,1.28E2,7.63E2,3.65E2,2.6E1,1.95E2,4.2E1,1.54E2,8.15E2,1E2,5.99E2,7.6E1,8.3E1,3E0,7E0,4E0,8E0,4E0,1.8E1,4.2E1,1.45E2,5.4E1,2.9E1,4E0,3E0,4E0,2E1,1.7E1,1.2E2,8E0,7.08E2,5.5E1,3.3E1,3.32E2,3E0,2.3E1,1.6E1,1.79E2,3E1,1.2E1,7.4E1,8E1,8.1E1,7.34E2,5.2E1,4.8E1,2.7E1,5.72E2,6.5E1,1.1E1,3E1,5.3E1,1.2E1,6E0,3.8E1,4E0,4.4E1,1.01E2,1E1,4.4E1,1.1E1,1.8E1,5E0,1.5E1,1.2E1,5E0,6.2E1,5.8E1,4E0,4E0,6.77E2,3.1E1,2.5E1,3E1,2.1E1,1.2E1,1.1E1,3.21E2,1E1,1.3E1,1.3E1,3E0,1.2E1,1.67E2,2.4E1,6E0,7E0,5E0,4E1,3.4E1,2.2E1,5.8E1,6.5E1,1.6E1,4.5E1,6.89E2,4.4E1,8E0,1.2E1,3.6E1,1.9E1,8E0,5.41E2,3.1E1,2.1E1,4.4E1,5E0,6E0,7E0,2.3E1,4E1,1.3E1,9E0,3E0,1.6E1,2.2E1,1.4E1,3E1,5.3E1,4.8E1,6E0,4E0,1.2E1,3.2E1,6E0,5E0,7E0,1.1E1,6E0,9E0,6E0,6E0,4.9E1,1.3E1,8E0,5E1],"tree_param":{"num_deleted":"0","num_feature":"330","num_nodes":"163","size_leaf_vector":"1"}},{"base_weights":[4.2266147E-3,2.0255966E-1,-1.4800145E-3,5.316344E-1,8.7527044E-2,-1.0703037E-1,9.6057765E-3,8.245287E-1,2.007662E-1,-3.0598747E-2,4.152363E-1,-1.334881E-1,4.874666E-1,-1.07682176E-1,1.817077E-2,4.666209E-3,1.5467013E-2,6.8512126E-3,-1.2625593E-3,-1.556002E-1,2.407517E-1,1.7701755E-1,1.276106E-2,-1.12104535E-1,-8.1296694E-1,1.6265167E-2,1.3452595E-1,3.805762E-2,-1.8835281E-1,3.2232898E-1,1.4568845E-2,-3.2339376E-1,1.9602895E-2,8.678581E-3,9.9329874E-2,2.9595938E-1,-3.1783779E-3,-1.5697662E-2,-9.580976E-2,-1.8243605E-3,-2.0640956E-2,5.5117956E-3,-2.2135861E-3,-3.116686E-2,4.8141038E-1,-5.019251E-1,-1.0901989E-1,4.6134144E-1,-1.4596851E-1,-1.3063847E-1,2.368355E-2,-3.7763354E-1,2.5083911E-5,-1.2581973E-1,2.2747968E-1,3.269377E-3,-1.989809E-3,4.0360418E-4,6.4541097E-3,-6.0486536E-2,-4.220227E-1,-7.184228E-2,8.506949E-3,1.4674881E-2,1.8911646E-3,-8.1893694E-1,-1.931695E-1,-1.2052684E-2,-6.844142E-2,5.684778E-1,-4.2914847E-4,1.1408819E-3,-4.341743E-3,-8.750166E-2,-7.854219E-1,2.2824594E-1,1.757638E-2,-2.484106E-3,-7.0540486E-3,-3.7256114E-3,5.087274E-4,5.673214E-3,-1.3842584E-4,-1.3194963E-3,6.1223484E-3,-3.452671E-4,-9.569358E-3,-2.3233083E-3,4.881896E-3,-4.740141E-3,-1.6382085E-2,1.3605319E-3,-6.0074897E-3,-3.5407846E-3,9.977593E-4,5.8969315E-3,1.3129533E-2,-5.1651397E-3,-4.3232494E-6,-1.762853E-2,-3.5817677E-3,-9.001648E-3,4.8423796E-3,1.8687423E-3,1.0144169E-4],"categories":[],"categories_nodes":[],"categories_segments":[],"categories_sizes":[],"default_left":[0,0,0,0,0,0,0,0,0,0,0,0,0,0,0,0,0,0,0,0,0,0,0,0,0,0,0,0,0,0,0,0,0,0,0,0,0,0,0,0,0,0,0,0,0,0,0,0,0,0,0,0,0,0,0,0,0,0,0,0,0,0,0,0,0,0,0,0,0,0,0,0,0,0,0,0,0,0,0,0,0,0,0,0,0,0,0,0,0,0,0,0,0,0,0,0,0,0,0,0,0,0,0,0,0],"id":2,"left_children":[1,3,5,7,9,11,13,15,17,19,21,23,25,27,29,-1,-1,-1,-1,31,33,35,-1,37,39,-1,41,43,45,47,49,51,53,-1,55,57,-1,-1,59,-1,-1,-1,-1,61,63,65,67,69,71,73,75,77,-1,79,81,-1,-1,-1,-1,83,85,87,-1,-1,-1,89,91,-1,93,95,-1,-1,-1,97,99,101,103,-1,-1,-1,-1,-1,-1,-1,-1,-1,-1,-1,-1,-1,-1,-1,-1,-1,-1,-1,-1,-1,-1,-1,-1,-1,-1,-1,-1],"loss_changes":[4.249127E0,3.928172E0,4.2719264E0,2.451016E0,3.0708678E0,5.5230484E0,3.3210578E0,6.446457E-1,8.8112926E-1,2.038694E0,1.687726E0,4.747247E0,2.5502799E0,2.6524756E0,3.369615E0,0E0,0E0,0E0,0E0,1.2116556E0,7.261498E-1,6.758702E-1,0E0,4.3832445E0,3.0088196E0,0E0,5.9199536E-1,2.5009642E0,3.5523891E0,2.4109113E0,4.033218E0,3.7068272E-1,6.634512E-1,0E0,3.354351E-1,2.846349E-1,0E0,0E0,3.650276E0,0E0,0E0,0E0,0E0,1.6294497E0,1.5693436E0,2.6803026E0,2.93056E0,1.4775667E0,2.5050026E-1,5.0154223E0,3.5764747E0,1.5251923E-1,0E0,2.1509428E-1,2.56442E-1,0E0,0E0,0E0,0E0,2.5669918E0,2.0140882E0,1.784308E0,0E0,0E0,0E0,1.0628767E0,8.0049413E-1,0E0,2.1403425E0,8.309698E-1,0E0,0E0,0E0,3.3856301E0,1.585784E0,4.5456777E0,3.060709E0,0E0,0E0,0E0,0E0,0E0,0E0,0E0,0E0,0E0,0E0,0E0,0E0,0E0,0E0,0E0,0E0,0E0,0E0,0E0,0E0,0E0,0E0,0E0,0E0,0E0,0E0,0E0,0E0],"parents":[2147483647,0,0,1,1,2,2,3,3,4,4,5,5,6,6,7,7,8,8,9,9,10,10,11,11,12,12,13,13,14,14,19,19,20,20,21,21,23,23,24,24,26,26,27,27,28,28,29,29,30,30,31,31,32,32,34,34,35,35,38,38,43,43,44,44,45,45,46,46,47,47,48,48,49,49,50,50,51,51,53,53,54,54,59,59,60,60,61,61,65,65,66,66,68,68,69,69,73,73,74,74,75,75,76,76],"right_children":[2,4,6,8,10,12,14,16,18,20,22,24,26,28,30,-1,-1,-1,-1,32,34,36,-1,38,40,-1,42,44,46,48,50,52,54,-1,56,58,-1,-1,60,-1,-1,-1,-1,62,64,66,68,70,72,74,76,78,-1,80,82,-1,-1,-1,-1,84,86,88,-1,-1,-1,90,92,-1,94,96,-1,-1,-1,98,100,102,104,-1,-1,-1,-1,-1,-1,-1,-1,-1,-1,-1,-1,-1,-1,-1,-1,-1,-1,-1,-1,-1,-1,-1,-1,-1,-1,-1,-1],"split_conditions":[-2.016114E0,5.0020564E-1,-1.2820472E0,2.6467744E-1,-3.432727E-1,1.5819247E0,-2.069065E-1,-6.4498556E-1,-9.1054505E-3,2.2966926E0,4.995004E-1,5.3189254E0,-1.8558571E0,-1.9251828E-1,-1.7780855E0,4.666209E-3,1.5467013E-2,6.8512126E-3,-1.2625593E-3,-4.8029673E-1,-1.0345799E0,-2.5893146E-1,1.276106E-2,-2.5385263E0,-2.4103084E-1,1.6265167E-2,2.4565199E-1,-5.575007E-2,-6.8359864E-1,5.182881E-2,-1.4682788E0,8.976207E-1,2.5653586E-1,8.678581E-3,1.2763634E-1,-8.5533077E-1,-3.1783779E-3,-1.5697662E-2,1.8594735E0,-1.8243605E-3,-2.0640956E-2,5.5117956E-3,-2.2135861E-3,2.3539755E0,-1.1715281E-1,1.3223469E-2,-1.0955036E0,6.3542384E-1,-2.6729938E-1,9.120747E-1,-1.2505381E0,-1.0368512E0,2.5083911E-5,-3.83521E-2,-1.7189047E-1,3.269377E-3,-1.989809E-3,4.0360418E-4,6.4541097E-3,2.7614834E0,-3.7064758E-1,4.3467702E-3,8.506949E-3,1.4674881E-2,1.8911646E-3,-3.4356022E-1,-4.7040355E-1,-1.2052684E-2,-4.919768E-2,-5.3208945E-3,-4.2914847E-4,1.1408819E-3,-4.341743E-3,-1.2548693E-1,-9.222347E-2,-3.8743374E-1,-1.249505E0,-2.484106E-3,-7.0540486E-3,-3.7256114E-3,5.087274E-4,5.673214E-3,-1.3842584E-4,-1.3194963E-3,6.1223484E-3,-3.452671E-4,-9.569358E-3,-2.3233083E-3,4.881896E-3,-4.740141E-3,-1.6382085E-2,1.3605319E-3,-6.0074897E-3,-3.5407846E-3,9.977593E-4,5.8969315E-3,1.3129533E-2,-5.1651397E-3,-4.3232494E-6,-1.762853E-2,-3.5817677E-3,-9.001648E-3,4.8423796E-3,1.8687423E-3,1.0144169E-4],"split_indices":[195,196,62,22,161,248,277,53,96,177,125,67,106,222,169,0,0,0,0,176,18,254,0,8,188,0,143,233,217,139,169,201,0,0,41,11,0,0,289,0,0,0,0,84,27,264,247,25,17,154,73,28,0,132,13,0,0,0,0,210,210,78,0,0,0,23,297,0,231,25,0,0,0,148,203,67,202,0,0,0,0,0,0,0,0,0,0,0,0,0,0,0,0,0,0,0,0,0,0,0,0,0,0,0,0],"split_type":[0,0,0,0,0,0,0,0,0,0,0,0,0,0,0,0,0,0,0,0,0,0,0,0,0,0,0,0,0,0,0,0,0,0,0,0,0,0,0,0,0,0,0,0,0,0,0,0,0,0,0,0,0,0,0,0,0,0,0,0,0,0,0,0,0,0,0,0,0,0,0,0,0,0,0,0,0,0,0,0,0,0,0,0,0,0,0,0,0,0,0,0,0,0,0,0,0,0,0,0,0,0,0,0,0],"sum_hessian":[3.753E3,1.04E2,3.649E3,2.6E1,7.8E1,3.46E2,3.303E3,1.3E1,1.3E1,5.8E1,2E1,3.32E2,1.4E1,2.24E2,3.079E3,3E0,1E1,7E0,6E0,4E1,1.8E1,1.3E1,7E0,3.23E2,9E0,5E0,9E0,8E1,1.44E2,3.5E1,3.044E3,2E1,2E1,5E0,1.3E1,1E1,3E0,5E0,3.18E2,4E0,5E0,5E0,4E0,7E1,1E1,2.8E1,1.16E2,2.7E1,8E0,1.79E2,2.865E3,1.7E1,3E0,1.2E1,8E0,9E0,4E0,3E0,7E0,2.88E2,3E1,6.6E1,4E0,4E0,6E0,1.3E1,1.5E1,6E0,1.1E2,2.2E1,5E0,3E0,5E0,1.69E2,1E1,8.2E1,2.783E3,4E0,1.3E1,7E0,5E0,5E0,3E0,2.76E2,1.2E1,9E0,2.1E1,5.6E1,1E1,4E0,9E0,6E0,9E0,5.1E1,5.9E1,1.3E1,9E0,4.6E1,1.23E2,6E0,4E0,6E0,7.6E1,2.92E2,2.491E3],"tree_param":{"num_deleted":"0","num_feature":"330","num_nodes":"105","size_leaf_vector":"1"}},{"base_weights":[3.3787966E-3,1.2756585E-3,4.991139E-1,5.6065287E-2,-1.6133502E-2,3.2139864E-2,9.620704E-1,4.733694E-2,4.8597357E-1,-2.5617853E-2,1.5325582E-1,5.0408314E-3,-2.5720426E-3,7.6665315E-3,1.9043518E-2,3.0112758E-2,2.4332222E-1,1.3007037E-1,1.6792022E-2,-3.2786135E-2,1.86094E-1,5.53037E-1,9.881644E-2,5.590774E-3,2.0914108E-1,3.713815E-1,-2.6806173E-1,3.3576697E-1,-3.681016E-3,-2.8139614E-2,-3.6616683E-1,3.5574615E-1,-8.581918E-2,1.854413E-1,1.3551945E-2,-1.5082797E-1,1.8106246E-1,1.321264E-1,-3.4680728E-2,-2.2186647E-1,3.28026E-1,3.499776E-2,5.218792E-1,-8.364037E-3,2.9791268E-3,1.7566923E-3,7.381445E-3,6.385862E-2,-4.1788224E-2,-5.886212E-1,1.277937E-1,5.334177E-1,-1.5360594E-1,5.388761E-2,-4.954041E-1,5.0214175E-3,-7.077697E-4,-2.3946118E-1,9.384753E-3,4.5614266E-1,7.081396E-2,2.6505238E-3,-7.1617644E-3,2.707903E-3,-1.0271535E-3,-7.112912E-3,6.8476098E-3,3.2067094E-3,1.0387179E-2,-1.6928271E-3,9.4902925E-3,1.0213962E-2,1.6204474E-3,1.8365514E-3,-3.7298405E-3,-5.688596E-3,-5.928687E-4,-5.2808677E-3,-2.0049755E-2,6.2034833E-3,-1.7341186E-3,1.023552E-2,-4.202012E-3,-9.143454E-3,7.3017913E-4,3.5641138E-3,-4.8801093E-3,-1.5633513E-3,-1.1111887E-2,2.8244997E-3,-5.019878E-3,-2.1998616E-4,1.0927855E-2,1.0314507E-4,9.8497085E-3],"categories":[],"categories_nodes":[],"categories_segments":[],"categories_sizes":[],"default_left":[0,0,0,0,0,0,0,0,0,0,0,0,0,0,0,0,0,0,0,0,0,0,0,0,0,0,0,0,0,0,0,0,0,0,0,0,0,0,0,0,0,0,0,0,0,0,0,0,0,0,0,0,0,0,0,0,0,0,0,0,0,0,0,0,0,0,0,0,0,0,0,0,0,0,0,0,0,0,0,0,0,0,0,0,0,0,0,0,0,0,0,0,0,0,0],"id":3,"left_children":[1,3,5,7,9,11,13,15,17,19,21,-1,-1,-1,-1,23,25,27,-1,29,31,33,35,37,39,41,43,45,-1,47,49,51,53,55,-1,57,59,61,63,65,67,69,71,-1,-1,-1,-1,73,75,77,79,81,83,85,87,-1,-1,89,-1,91,93,-1,-1,-1,-1,-1,-1,-1,-1,-1,-1,-1,-1,-1,-1,-1,-1,-1,-1,-1,-1,-1,-1,-1,-1,-1,-1,-1,-1,-1,-1,-1,-1,-1,-1],"loss_changes":[3.9487295E0,3.5997484E0,3.4280982E0,3.3916698E0,4.6050787E0,5.190221E-1,2.5248098E-1,3.0071611E0,3.3302917E0,4.123378E0,3.2534544E0,0E0,0E0,0E0,0E0,3.607517E0,4.814649E0,9.5215225E-1,0E0,4.05598E0,4.1361575E0,1.6694708E0,2.7991643E0,3.6939266E0,5.1455674E0,2.917984E0,1.736292E0,1.6260147E-1,0E0,3.2547975E0,4.031034E0,5.0592923E0,2.029459E0,2.635277E-1,0E0,2.3210454E0,3.0610716E0,3.0562007E0,3.1073172E0,3.183865E0,3.0360708E0,1.4948324E0,1.6734056E0,0E0,0E0,0E0,0E0,4.7613034E0,3.812082E0,3.837739E0,7.458453E-1,3.1543636E0,1.2305919E0,1.6250412E0,5.9709096E-1,0E0,0E0,9.1486037E-1,0E0,2.895895E0,2.5328743E0,0E0,0E0,0E0,0E0,0E0,0E0,0E0,0E0,0E0,0E0,0E0,0E0,0E0,0E0,0E0,0E0,0E0,0E0,0E0,0E0,0E0,0E0,0E0,0E0,0E0,0E0,0E0,0E0,0E0,0E0,0E0,0E0,0E0,0E0],"parents":[2147483647,0,0,1,1,2,2,3,3,4,4,5,5,6,6,7,7,8,8,9,9,10,10,15,15,16,16,17,17,19,19,20,20,21,21,22,22,23,23,24,24,25,25,26,26,27,27,29,29,30,30,31,31,32,32,33,33,35,35,36,36,37,37,38,38,39,39,40,40,41,41,42,42,47,47,48,48,49,49,50,50,51,51,52,52,53,53,54,54,57,57,59,59,60,60],"right_children":[2,4,6,8,10,12,14,16,18,20,22,-1,-1,-1,-1,24,26,28,-1,30,32,34,36,38,40,42,44,46,-1,48,50,52,54,56,-1,58,60,62,64,66,68,70,72,-1,-1,-1,-1,74,76,78,80,82,84,86,88,-1,-1,90,-1,92,94,-1,-1,-1,-1,-1,-1,-1,-1,-1,-1,-1,-1,-1,-1,-1,-1,-1,-1,-1,-1,-1,-1,-1,-1,-1,-1,-1,-1,-1,-1,-1,-1,-1,-1],"split_conditions":[6.9329767E0,-6.755634E-1,-1.043434E-1,2.1137052E0,1.5183603E0,-1.3894962E0,-1.7187807E-1,1.364888E0,1.6934675E-1,2.4659781E0,-2.0471434E-1,5.0408314E-3,-2.5720426E-3,7.6665315E-3,1.9043518E-2,4.7968757E-1,9.243186E-2,-1.808712E-1,1.6792022E-2,4.33566E0,-8.017165E-1,1.218062E0,-2.0048852E-1,-3.7472084E-1,-8.5533077E-1,-1.4828914E0,4.8589644E-1,5.183803E-2,-3.681016E-3,-3.8535458E-1,5.2209085E-1,3.9162892E-1,2.910905E-1,6.2114964E-3,1.3551945E-2,4.0064433E-1,-4.9499148E-1,2.0580852E0,-8.567392E-1,1.1086152E0,-3.2363483E-1,5.4997396E-1,5.869522E-1,-8.364037E-3,2.9791268E-3,1.7566923E-3,7.381445E-3,1.1192327E0,-1.4325155E0,-5.0705767E-1,-3.6286438E-1,1.3803501E0,-3.8200596E-1,2.6140487E-1,-3.6842635E-1,5.0214175E-3,-7.077697E-4,-1.2175202E0,9.384753E-3,-8.2072115E-1,1.3640816E0,2.6505238E-3,-7.1617644E-3,2.707903E-3,-1.0271535E-3,-7.112912E-3,6.8476098E-3,3.2067094E-3,1.0387179E-2,-1.6928271E-3,9.4902925E-3,1.0213962E-2,1.6204474E-3,1.8365514E-3,-3.7298405E-3,-5.688596E-3,-5.928687E-4,-5.2808677E-3,-2.0049755E-2,6.2034833E-3,-1.7341186E-3,1.023552E-2,-4.202012E-3,-9.143454E-3,7.3017913E-4,3.5641138E-3,-4.8801093E-3,-1.5633513E-3,-1.1111887E-2,2.8244997E-3,-5.019878E-3,-2.1998616E-4,1.0927855E-2,1.0314507E-4,9.8497085E-3],"split_indices":[23,110,297,198,50,7,178,309,312,34,57,0,0,0,0,89,79,178,0,67,219,83,123,199,11,325,160,0,0,177,327,8,185,5,0,82,191,3,3,124,107,122,80,0,0,0,0,289,10,63,111,250,1,258,1,0,0,253,0,323,191,0,0,0,0,0,0,0,0,0,0,0,0,0,0,0,0,0,0,0,0,0,0,0,0,0,0,0,0,0,0,0,0,0,0],"split_type":[0,0,0,0,0,0,0,0,0,0,0,0,0,0,0,0,0,0,0,0,0,0,0,0,0,0,0,0,0,0,0,0,0,0,0,0,0,0,0,0,0,0,0,0,0,0,0,0,0,0,0,0,0,0,0,0,0,0,0,0,0,0,0,0,0,0,0,0,0,0,0,0,0,0,0,0,0,0,0,0,0,0,0,0,0,0,0,0,0,0,0,0,0,0,0],"sum_hessian":[3.787E3,3.772E3,1.5E1,9.09E2,2.863E3,8E0,7E0,8.92E2,1.7E1,2.712E3,1.51E2,3E0,5E0,3E0,4E0,8.21E2,7.1E1,1.1E1,6E0,2.624E3,8.8E1,1.7E1,1.34E2,7.23E2,9.8E1,5.7E1,1.4E1,7E0,4E0,2.589E3,3.5E1,5.4E1,3.4E1,8E0,9E0,3.3E1,1.01E2,1.74E2,5.49E2,2.1E1,7.7E1,1.8E1,3.9E1,9E0,5E0,3E0,4E0,3.34E2,2.255E3,2.4E1,1.1E1,4E1,1.4E1,2.6E1,8E0,5E0,3E0,3E1,3E0,2.8E1,7.3E1,1.66E2,8E0,6.7E1,4.82E2,1.6E1,5E0,5.5E1,2.2E1,1.5E1,3E0,3.1E1,8E0,2.87E2,4.7E1,3.9E1,2.216E3,1.8E1,6E0,5E0,6E0,3.6E1,4E0,4E0,1E1,1.8E1,8E0,3E0,5E0,4E0,2.6E1,9E0,1.9E1,6.6E1,7E0],"tree_param":{"num_deleted":"0","num_feature":"330","num_nodes":"95","size_leaf_vector":"1"}},{"base_weights":[-5.568922E-3,3.397632E-3,-1.3924924E-1,-4.0764596E-2,2.8803175E-2,-2.602258E-2,-3.8347182E-1,-1.45222265E-2,-1.5052375E-1,2.3801209E-1,2.0456363E-2,6.1040413E-1,-7.160867E-2,-8.477684E-1,-2.7244562E-1,-4.3966297E-2,1.0178788E-1,-2.6016083E-1,-3.4260888E-2,6.920137E-1,1.5503867E-1,4.4466695E-1,1.6081672E-2,1.3513083E-2,4.2892454E-4,-1.6458423E-1,1.3520421E-1,1.2893766E-3,-1.1076444E0,-3.4593147E-1,2.6682523E-1,7.418026E-2,-7.459657E-2,-9.969005E-3,2.5214955E-1,-6.9168985E-2,-3.9420614E-1,-3.3384457E-1,6.2747404E-2,3.7937823E-3,1.5547163E-2,-4.202695E-1,2.3114072E-1,8.117509E-1,7.111772E-2,-4.523529E-1,1.9160261E-2,-2.9712117E-1,8.113643E-3,-8.8174995E-3,5.2363324E-1,-2.1071207E-2,-7.6778247E-3,3.4428492E-2,-4.6448165E-1,-2.4900825E-3,1.1840901E-2,8.415961E-1,3.6522638E-2,-2.1832768E-2,-1.660799E-1,3.0892333E-1,-6.8132326E-2,2.015667E-1,8.2312256E-1,-4.3047547E-1,9.4288364E-2,-4.531124E-1,5.8674077E-3,-6.821643E-2,-6.75957E-1,-1.0422191E-2,4.1552746E-1,-1.3137015E-2,-1.5527775E-3,5.4347587E-1,6.262141E-2,1.7598597E-2,6.74232E-3,2.7272874E-1,-4.3454743E-3,-4.788423E-4,-7.6600057E-1,-2.9368402E-2,4.778401E-2,-3.5009083E-1,5.815535E-3,-4.1768506E-1,9.3070544E-2,9.7608164E-2,-6.436157E-3,1.2427775E-2,1.985961E-3,-4.6814657E-3,3.996921E-3,-1.125089E-2,-5.707933E-1,1.8085767E-2,7.5554E-3,6.3339234E-3,-5.2123616E-4,1.608903E-3,-1.2705876E-3,-1.4115736E-3,-5.390693E-3,-3.8630436E-3,6.965841E-3,-5.341877E-3,2.2066722E-4,4.070337E-3,-3.6016773E-3,3.7407638E-3,1.9819235E-2,-4.3606595E-3,-1.2600957E-2,7.3800064E-3,-8.063501E-4,-1.0161922E-2,-3.4044473E-3,6.0461233E-3,-3.593848E-3,-1.4744145E-2,-2.2057274E-3,8.722888E-3,-8.99089E-4,-1.6620607E-3,1.07921045E-2,9.1151625E-4,1.3082893E-2,-7.4954616E-4,5.816745E-3,7.1344743E-3,1.4295501E-3,-6.9321785E-3,-1.6391935E-2,-9.5009175E-4,2.728923E-3,2.3905741E-4,2.1987061E-3,1.730383E-5,-7.292784E-3,-3.0821413E-3,-9.8105E-3,3.8298666E-3,-7.4797496E-4,5.1218136E-3,-2.0353182E-3,-2.225714E-3,2.9245312E-3,-1.3598544E-2,-6.9930516E-3],"categories":[],"categories_nodes":[],"categories_segments":[],"categories_sizes":[],"default_left":[0,0,0,0,0,0,0,0,0,0,0,0,0,0,0,0,0,0,0,0,0,0,0,0,0,0,0,0,0,0,0,0,0,0,0,0,0,0,0,0,0,0,0,0,0,0,0,0,0,0,0,0,0,0,0,0,0,0,0,0,0,0,0,0,0,0,0,0,0,0,0,0,0,0,0,0,0,0,0,0,0,0,0,0,0,0,0,0,0,0,0,0,0,0,0,0,0,0,0,0,0,0,0,0,0,0,0,0,0,0,0,0,0,0,0,0,0,0,0,0,0,0,0,0,0,0,0,0,0,0,0,0,0,0,0,0,0,0,0,0,0,0,0,0,0,0,0,0,0,0,0],"id":4,"left_children":[1,3,5,7,9,11,13,15,17,19,21,23,25,27,29,31,33,35,37,39,41,43,45,-1,-1,47,49,-1,51,53,55,57,59,61,63,65,67,69,71,-1,-1,73,75,77,79,81,83,85,87,89,91,-1,-1,93,95,-1,-1,97,99,101,103,105,107,109,111,113,115,117,-1,119,121,123,125,-1,-1,127,129,-1,-1,131,-1,-1,133,135,137,139,-1,141,143,145,-1,-1,-1,-1,-1,147,149,-1,-1,-1,-1,-1,-1,-1,-1,-1,-1,-1,-1,-1,-1,-1,-1,-1,-1,-1,-1,-1,-1,-1,-1,-1,-1,-1,-1,-1,-1,-1,-1,-1,-1,-1,-1,-1,-1,-1,-1,-1,-1,-1,-1,-1,-1,-1,-1,-1,-1,-1,-1,-1,-1],"loss_changes":[4.51939E0,3.9662E0,6.543665E0,3.7163334E0,3.9136658E0,4.7726994E0,3.635211E0,3.5763779E0,3.16502E0,3.1323366E0,3.9994998E0,1.3649898E0,2.9642196E0,3.458539E0,2.5492868E0,3.0200448E0,3.5481477E0,3.249733E0,3.5665243E0,1.3258119E0,3.3370187E0,2.9589972E0,3.0919147E0,0E0,0E0,2.428629E0,2.6898434E0,0E0,6.635132E-1,2.496038E0,1.6427743E0,4.9399004E0,3.191853E0,2.2838838E0,2.4334164E0,3.2297316E0,3.4890194E0,2.6801295E0,2.4049187E0,0E0,0E0,1.0449646E0,3.439844E0,7.176862E-1,8.872934E-1,1.8353312E0,2.953182E0,2.1988277E0,1.7390774E0,1.5122846E0,1.1427901E0,0E0,0E0,1.0124199E0,2.017294E0,0E0,0E0,2.9156113E-1,3.9702256E0,2.8339872E0,3.1282125E0,1.3120613E0,2.1985428E0,1.7304084E0,1.3399034E0,7.4158883E-1,1.9697733E0,2.7547083E0,0E0,1.2754161E0,1.4646864E0,1.9186951E0,2.0885108E0,0E0,0E0,2.8319306E0,1.4144965E0,0E0,0E0,2.0424324E-1,0E0,0E0,2.2180319E-1,4.456021E0,3.8403788E0,1.8841553E0,0E0,2.2098637E-1,7.940427E-1,1.4269204E0,0E0,0E0,0E0,0E0,0E0,2.3785576E-1,9.137745E-1,0E0,0E0,0E0,0E0,0E0,0E0,0E0,0E0,0E0,0E0,0E0,0E0,0E0,0E0,0E0,0E0,0E0,0E0,0E0,0E0,0E0,0E0,0E0,0E0,0E0,0E0,0E0,0E0,0E0,0E0,0E0,0E0,0E0,0E0,0E0,0E0,0E0,0E0,0E0,0E0,0E0,0E0,0E0,0E0,0E0,0E0,0E0,0E0,0E0,0E0,0E0,0E0,0E0,0E0],"parents":[2147483647,0,0,1,1,2,2,3,3,4,4,5,5,6,6,7,7,8,8,9,9,10,10,11,11,12,12,13,13,14,14,15,15,16,16,17,17,18,18,19,19,20,20,21,21,22,22,25,25,26,26,28,28,29,29,30,30,31,31,32,32,33,33,34,34,35,35,36,36,37,37,38,38,41,41,42,42,43,43,44,44,45,45,46,46,47,47,48,48,49,49,50,50,53,53,54,54,57,57,58,58,59,59,60,60,61,61,62,62,63,63,64,64,65,65,66,66,67,67,69,69,70,70,71,71,72,72,75,75,76,76,79,79,82,82,83,83,84,84,85,85,87,87,88,88,89,89,95,95,96,96],"right_children":[2,4,6,8,10,12,14,16,18,20,22,24,26,28,30,32,34,36,38,40,42,44,46,-1,-1,48,50,-1,52,54,56,58,60,62,64,66,68,70,72,-1,-1,74,76,78,80,82,84,86,88,90,92,-1,-1,94,96,-1,-1,98,100,102,104,106,108,110,112,114,116,118,-1,120,122,124,126,-1,-1,128,130,-1,-1,132,-1,-1,134,136,138,140,-1,142,144,146,-1,-1,-1,-1,-1,148,150,-1,-1,-1,-1,-1,-1,-1,-1,-1,-1,-1,-1,-1,-1,-1,-1,-1,-1,-1,-1,-1,-1,-1,-1,-1,-1,-1,-1,-1,-1,-1,-1,-1,-1,-1,-1,-1,-1,-1,-1,-1,-1,-1,-1,-1,-1,-1,-1,-1,-1,-1,-1,-1,-1],"split_conditions":[1.4734534E0,-5.646651E-1,-4.4847637E-2,5.070668E-3,-1.6234115E0,-1.2185991E0,-1.3011847E0,7.4690217E-1,1.0555357E-1,-2.7666393E-1,-1.8130085E0,5.8746296E-1,7.844982E-1,-1.9969063E-1,1.4399338E0,-9.7394246E-1,-4.1565057E-2,-1.3281885E-1,-7.749001E-1,-1.0489917E0,-2.03868E-1,3.7715295E-1,-2.073478E-1,1.3513083E-2,4.2892454E-4,-2.4101219E-1,-4.4988763E-2,1.2893766E-3,3.150517E-2,-9.094224E-1,-2.8778535E-1,-1.5011835E0,-1.7498496E-1,-1.2171788E0,1.4773064E0,-2.0078352E-1,1.958129E0,-7.894686E-2,-1.0851982E-2,3.7937823E-3,1.5547163E-2,-2.3312289E-1,-8.122454E-1,-2.422132E-1,-3.8631734E-2,-3.5280633E-1,-3.4329692E-1,1.7340643E0,-5.7910985E-1,-2.6455522E-2,-3.4023303E-1,-2.1071207E-2,-7.6778247E-3,-1.5738906E-2,-6.8509847E-1,-2.4900825E-3,1.1840901E-2,-7.126125E-2,-9.005772E-1,-2.913443E-1,-1.8908307E-1,-6.695119E-1,-8.276129E-1,2.0835354E0,5.908252E-2,-1.1249036E-1,-8.7071747E-1,-6.9148086E-2,5.8674077E-3,1.2076398E-1,-6.9358885E-1,-9.4773495E-1,-1.7820181E-1,-1.3137015E-2,-1.5527775E-3,-1.0496719E0,1.3672103E-1,1.7598597E-2,6.74232E-3,-1.17707245E-1,-4.3454743E-3,-4.788423E-4,-3.284433E-1,1.0543709E0,6.12129E-1,-6.8275416E-1,5.815535E-3,-5.16528E-1,-1.2715457E-1,1.3134345E0,-6.436157E-3,1.2427775E-2,1.985961E-3,-4.6814657E-3,3.996921E-3,-3.1214786E-1,-4.7696456E-2,1.8085767E-2,7.5554E-3,6.3339234E-3,-5.2123616E-4,1.608903E-3,-1.2705876E-3,-1.4115736E-3,-5.390693E-3,-3.8630436E-3,6.965841E-3,-5.341877E-3,2.2066722E-4,4.070337E-3,-3.6016773E-3,3.7407638E-3,1.9819235E-2,-4.3606595E-3,-1.2600957E-2,7.3800064E-3,-8.063501E-4,-1.0161922E-2,-3.4044473E-3,6.0461233E-3,-3.593848E-3,-1.4744145E-2,-2.2057274E-3,8.722888E-3,-8.99089E-4,-1.6620607E-3,1.07921045E-2,9.1151625E-4,1.3082893E-2,-7.4954616E-4,5.816745E-3,7.1344743E-3,1.4295501E-3,-6.9321785E-3,-1.6391935E-2,-9.5009175E-4,2.728923E-3,2.3905741E-4,2.1987061E-3,1.730383E-5,-7.292784E-3,-3.0821413E-3,-9.8105E-3,3.8298666E-3,-7.4797496E-4,5.1218136E-3,-2.0353182E-3,-2.225714E-3,2.9245312E-3,-1.3598544E-2,-6.9930516E-3],"split_indices":[169,64,210,211,215,114,237,165,294,192,17,149,132,46,261,32,170,200,121,29,192,281,277,0,0,10,45,0,30,253,4,72,317,117,308,101,129,255,232,0,0,55,128,7,82,177,221,91,261,212,122,0,0,96,14,0,0,16,253,271,210,198,307,111,15,316,316,82,0,212,75,185,90,0,0,172,104,0,0,45,0,0,1,193,121,130,0,4,11,136,0,0,0,0,0,25,192,0,0,0,0,0,0,0,0,0,0,0,0,0,0,0,0,0,0,0,0,0,0,0,0,0,0,0,0,0,0,0,0,0,0,0,0,0,0,0,0,0,0,0,0,0,0,0,0,0,0,0,0,0,0],"split_type":[0,0,0,0,0,0,0,0,0,0,0,0,0,0,0,0,0,0,0,0,0,0,0,0,0,0,0,0,0,0,0,0,0,0,0,0,0,0,0,0,0,0,0,0,0,0,0,0,0,0,0,0,0,0,0,0,0,0,0,0,0,0,0,0,0,0,0,0,0,0,0,0,0,0,0,0,0,0,0,0,0,0,0,0,0,0,0,0,0,0,0,0,0,0,0,0,0,0,0,0,0,0,0,0,0,0,0,0,0,0,0,0,0,0,0,0,0,0,0,0,0,0,0,0,0,0,0,0,0,0,0,0,0,0,0,0,0,0,0,0,0,0,0,0,0,0,0,0,0,0,0],"sum_hessian":[3.769E3,3.533E3,2.36E2,1.29E3,2.243E3,1.62E2,7.4E1,1.042E3,2.48E2,8.5E1,2.158E3,1E1,1.52E2,1.3E1,6.1E1,8.32E2,2.1E2,1.27E2,1.21E2,1.2E1,7.3E1,2.1E1,2.137E3,7E0,3E0,1.05E2,4.7E1,3E0,1E1,5.4E1,7E0,1.71E2,6.61E2,1.21E2,8.9E1,5.3E1,7.4E1,2.9E1,9.2E1,5E0,7E0,8E0,6.5E1,1E1,1.1E1,1.3E1,2.124E3,5.9E1,4.6E1,3.5E1,1.2E1,7E0,3E0,1.3E1,4.1E1,4E0,3E0,7E0,1.64E2,4.2E2,2.41E2,1.8E1,1.03E2,8.3E1,6E0,1.6E1,3.7E1,6.9E1,5E0,1.7E1,1.2E1,7.7E1,1.5E1,3E0,5E0,2.2E1,4.3E1,5E0,5E0,7E0,4E0,6E0,7E0,7.88E2,1.336E3,5.5E1,4E0,7E0,3.9E1,2.8E1,7E0,7E0,5E0,5E0,8E0,8E0,3.3E1,3E0,4E0,2.6E1,1.38E2,1.33E2,2.87E2,1.63E2,7.8E1,3E0,1.5E1,2.4E1,7.9E1,7.5E1,8E0,3E0,3E0,1.2E1,4E0,1E1,2.7E1,4E1,2.9E1,4E0,1.3E1,8E0,4E0,5E0,7.2E1,5E0,1E1,8E0,1.4E1,3.2E1,1.1E1,3E0,4E0,4E0,3E0,6.88E2,1E2,9.67E2,3.69E2,1.2E1,4.3E1,4E0,3E0,1.9E1,2E1,1.4E1,1.4E1,5E0,3E0,1E1,2.3E1],"tree_param":{"num_deleted":"0","num_feature":"330","num_nodes":"151","size_leaf_vector":"1"}},{"base_weights":[-1.6282308E-3,-5.261475E-3,3.059134E-1,-6.673486E-4,-2.3185465E-1,-1.0991933E-1,5.247896E-1,-3.5451016E-1,2.3621444E-3,-6.811005E-2,-5.919792E-1,-3.4919417E-1,2.4760462E-1,6.6184384E-1,-8.20345E-6,-9.182983E-1,-1.8246908E-1,-3.698757E-2,2.8933939E-2,-1.6600756E-1,3.118723E-1,-1.0071774E0,4.8496146E-2,-5.63707E-4,-7.8369705E-3,9.848021E-4,6.1023133E-3,2.1623738E-1,8.4328187E-1,-7.729083E-3,-1.8555105E-2,5.2765044E-3,-2.9403624E-1,6.903415E-2,-7.0229106E-2,4.8389047E-2,-6.330944E-2,-6.4531155E-2,-5.3091764E-1,9.79293E-3,2.1173158E-3,-5.271429E-3,-1.2489E0,7.738495E-3,-5.1267543E-3,-6.76808E-4,6.2002353E-3,1.5471099E-2,4.8892456E-3,-4.2707258E-1,5.405081E-4,4.1165742E-1,3.7865587E-2,-2.5513846E-1,-5.0898045E-2,2.7047027E-2,1.8913127E-1,-3.8794596E-2,-4.7704706E-1,-1.934945E-1,1.8802619E-1,-1.1404086E-2,-2.4319743E-3,-9.480853E-3,-2.3763517E-2,-9.158942E-3,-3.938175E-3,2.5829123E-3,1.099503E-2,-1.2393188E-2,8.226142E-4,-4.7108154E-3,1.0584486E-2,-9.888545E-5,-2.2296188E-3,3.805405E-4,9.07047E-3,3.3741556E-3,-1.3963781E-2,-1.6789311E-3,1.4163946E-3,-1.6993154E-2,-3.8683524E-3,-4.7072987E-3,3.1590014E-4,7.659504E-3,6.9620967E-4],"categories":[],"categories_nodes":[],"categories_segments":[],"categories_sizes":[],"default_left":[0,0,0,0,0,0,0,0,0,0,0,0,0,0,0,0,0,0,0,0,0,0,0,0,0,0,0,0,0,0,0,0,0,0,0,0,0,0,0,0,0,0,0,0,0,0,0,0,0,0,0,0,0,0,0,0,0,0,0,0,0,0,0,0,0,0,0,0,0,0,0,0,0,0,0,0,0,0,0,0,0,0,0,0,0,0,0],"id":5,"left_children":[1,3,5,7,9,11,13,15,17,19,21,23,25,27,-1,29,31,33,35,37,39,41,43,-1,-1,-1,-1,45,47,-1,-1,-1,49,51,53,55,57,59,61,-1,-1,-1,63,-1,-1,-1,-1,-1,-1,65,-1,67,69,71,73,75,77,79,81,83,85,-1,-1,-1,-1,-1,-1,-1,-1,-1,-1,-1,-1,-1,-1,-1,-1,-1,-1,-1,-1,-1,-1,-1,-1,-1,-1],"loss_changes":[4.210757E0,3.8765209E0,4.0623837E0,3.9145794E0,4.3233457E0,1.455206E0,2.0881405E0,2.8392751E0,3.7871606E0,1.9861383E0,6.165101E0,3.925084E-1,1.4215076E-1,1.6772003E0,0E0,1.3837576E-1,1.5036056E0,5.150363E0,3.8829994E0,1.5209894E0,4.9812698E-1,1.9152002E0,1.6852674E0,0E0,0E0,0E0,0E0,3.5130382E-1,6.110678E-1,0E0,0E0,0E0,9.2790604E-1,3.711409E0,3.9618506E0,5.3595357E0,3.805296E0,1.1437837E0,4.6850967E-1,0E0,0E0,0E0,5.230999E-1,0E0,0E0,0E0,0E0,0E0,0E0,2.3656034E-1,0E0,1.8113003E0,3.2123423E0,3.3016033E0,3.8611622E0,3.0824056E0,4.382986E0,2.867416E0,2.5926557E0,4.6717316E-1,4.6929577E-1,0E0,0E0,0E0,0E0,0E0,0E0,0E0,0E0,0E0,0E0,0E0,0E0,0E0,0E0,0E0,0E0,0E0,0E0,0E0,0E0,0E0,0E0,0E0,0E0,0E0,0E0],"parents":[2147483647,0,0,1,1,2,2,3,3,4,4,5,5,6,6,7,7,8,8,9,9,10,10,11,11,12,12,13,13,15,15,16,16,17,17,18,18,19,19,20,20,21,21,22,22,27,27,28,28,32,32,33,33,34,34,35,35,36,36,37,37,38,38,42,42,49,49,51,51,52,52,53,53,54,54,55,55,56,56,57,57,58,58,59,59,60,60],"right_children":[2,4,6,8,10,12,14,16,18,20,22,24,26,28,-1,30,32,34,36,38,40,42,44,-1,-1,-1,-1,46,48,-1,-1,-1,50,52,54,56,58,60,62,-1,-1,-1,64,-1,-1,-1,-1,-1,-1,66,-1,68,70,72,74,76,78,80,82,84,86,-1,-1,-1,-1,-1,-1,-1,-1,-1,-1,-1,-1,-1,-1,-1,-1,-1,-1,-1,-1,-1,-1,-1,-1,-1,-1],"split_conditions":[2.5825157E0,1.3927479E0,-6.43993E-1,-2.073478E-1,6.821533E-2,-1.7541182E-1,3.562943E-2,-6.544781E-1,-2.332165E-1,1.2152096E0,-6.148164E-1,-7.4646765E-1,-5.599743E-1,-2.0153202E-1,-8.20345E-6,-8.683344E-1,-4.0922526E-1,-2.0050131E-1,6.37801E-1,7.649296E-1,-7.424741E-2,-1.9974934E-1,-4.816895E-2,-5.63707E-4,-7.8369705E-3,9.848021E-4,6.1023133E-3,7.492163E-2,7.2604364E-1,-7.729083E-3,-1.8555105E-2,5.2765044E-3,-1.5569988E-1,-1.5705947E0,-1.4159801E0,4.4858474E-1,1.5514244E0,4.7354463E-1,-3.4517452E-1,9.79293E-3,2.1173158E-3,-5.271429E-3,-6.035521E-1,7.738495E-3,-5.1267543E-3,-6.76808E-4,6.2002353E-3,1.5471099E-2,4.8892456E-3,-2.0832218E-1,5.405081E-4,-2.3041628E-1,-1.713169E0,1.187028E0,5.8641243E-1,5.319166E0,2.6889699E0,6.0814023E-1,-3.5156345E-1,4.228836E-1,5.535212E-1,-1.1404086E-2,-2.4319743E-3,-9.480853E-3,-2.3763517E-2,-9.158942E-3,-3.938175E-3,2.5829123E-3,1.099503E-2,-1.2393188E-2,8.226142E-4,-4.7108154E-3,1.0584486E-2,-9.888545E-5,-2.2296188E-3,3.805405E-4,9.07047E-3,3.3741556E-3,-1.3963781E-2,-1.6789311E-3,1.4163946E-3,-1.6993154E-2,-3.8683524E-3,-4.7072987E-3,3.1590014E-4,7.659504E-3,6.9620967E-4],"split_indices":[228,167,58,277,210,145,269,184,99,257,21,47,0,68,0,18,162,68,119,64,60,277,5,0,0,0,0,13,110,0,0,0,283,191,279,89,158,4,111,0,0,0,44,0,0,0,0,0,0,81,0,221,193,103,257,309,289,290,177,283,6,0,0,0,0,0,0,0,0,0,0,0,0,0,0,0,0,0,0,0,0,0,0,0,0,0,0],"split_type":[0,0,0,0,0,0,0,0,0,0,0,0,0,0,0,0,0,0,0,0,0,0,0,0,0,0,0,0,0,0,0,0,0,0,0,0,0,0,0,0,0,0,0,0,0,0,0,0,0,0,0,0,0,0,0,0,0,0,0,0,0,0,0,0,0,0,0,0,0,0,0,0,0,0,0,0,0,0,0,0,0,0,0,0,0,0,0],"sum_hessian":[3.766E3,3.723E3,4.3E1,3.65E3,7.3E1,1.5E1,2.8E1,3E1,3.62E3,5.1E1,2.2E1,9E0,6E0,2.2E1,6E0,6E0,2.4E1,1.459E3,2.161E3,4.1E1,1E1,1.3E1,9E0,3E0,6E0,3E0,3E0,7E0,1.5E1,3E0,3E0,4E0,2E1,3.48E2,1.111E3,1.785E3,3.76E2,3.3E1,8E0,3E0,7E0,4E0,9E0,4E0,5E0,3E0,4E0,1.2E1,3E0,1.4E1,6E0,2.8E1,3.2E2,1.04E2,1.007E3,1.551E3,2.34E2,3.56E2,2E1,2.2E1,1.1E1,5E0,3E0,3E0,6E0,7E0,7E0,1.5E1,1.3E1,4E0,3.16E2,1.01E2,3E0,6.61E2,3.46E2,1.541E3,1E1,2.31E2,3E0,2.36E2,1.2E2,5E0,1.5E1,1.5E1,7E0,3E0,8E0],"tree_param":{"num_deleted":"0","num_feature":"330","num_nodes":"87","size_leaf_vector":"1"}},{"base_weights":[-4.5114962E-4,-1.3834543E-2,7.3711045E-2,2.2737577E-3,-8.39601E-2,-1.9724106E-2,1.5351474E-1,1.1882957E-1,-9.532872E-3,-1.6787696E-1,1.0521984E-2,-5.1069476E-2,4.3686596E-1,1.2393058E-1,7.2115755E-1,2.9269475E-1,3.1144902E-2,-2.8292375E-2,7.318775E-2,-2.2346035E-1,7.93927E-2,6.2341023E-2,-2.2134592E-1,-1.4054989E-2,-3.422853E-2,1.7612018E-1,1.6804503E-2,2.7055156E-1,3.1709038E-2,1.5166518E-2,2.0190603E-3,4.1044155E-1,2.1943998E-2,-1.7109819E-1,1.3780092E-1,1.2192191E-2,-7.026533E-2,5.475452E-2,7.720244E-1,-1.5974577E-1,-4.6328294E-1,5.598068E-1,2.476902E-3,1.1788817E-1,-2.371851E-1,-3.83428E-1,2.81927E-1,-1.9397849E-1,3.6868956E-2,5.2667805E-3,-1.9906643E-3,3.0118084E-1,-1.0457785E-2,7.036272E-2,-5.7206255E-1,-1.2505029E-1,4.7856402E-1,1.698092E-1,-2.5979516E-1,-6.363839E-3,-4.590651E-1,2.6927507E-1,-7.078803E-2,-2.638299E-1,2.6564468E-2,1.4163848E-2,-1.2805021E-1,2.0140877E-1,-2.716262E-2,1.18836375E-4,1.730285E-2,-5.3235173E-1,-1.0681339E-1,-2.3159161E-1,-8.339941E-1,2.3126106E-3,1.5421453E-2,3.1200153E-1,-6.236492E-2,2.5800174E-1,-1.997521E-3,-4.8863247E-1,1.4741673E-1,-5.629466E-1,-5.866842E-2,9.717244E-3,-2.9654964E-3,-1.2721051E-2,-1.5013443E-1,-3.558176E-2,2.4999389E-1,1.839654E-1,5.2747166E-1,-9.091445E-3,3.4869152E-1,2.46037E-4,-1.7399732E-2,7.585045E-4,-4.337783E-3,4.1683735E-3,1.0654289E-2,9.949896E-4,8.321364E-3,-3.8972768E-4,-6.113932E-3,1.3656996E-3,-7.6806303E-3,-9.178932E-3,1.4684936E-3,8.520366E-3,1.8873465E-3,-4.612754E-3,2.3522926E-3,2.4849703E-3,-5.9481356E-3,-3.307271E-3,7.413953E-4,-1.0953042E-4,7.523557E-3,6.072485E-4,-2.7499327E-3,6.394827E-3,1.2362596E-3,-1.4477799E-3,2.758369E-3,-2.3001E-3,-1.6652267E-2,-4.340667E-3,-3.3551262E-4,-5.403024E-3,9.676507E-3,-1.1383035E-5,-1.7047279E-2,3.0551854E-4,7.450889E-3,-7.657546E-3,-1.4291216E-4,-9.1158156E-4,6.0218666E-3,6.2826043E-4,-1.3376954E-2,-1.234848E-2,-2.5129158E-3,-2.7029342E-3,6.120821E-3,-2.2578132E-3,-1.1784669E-2,-4.336016E-3,2.5368202E-3,2.9442515E-3,-3.7166425E-3,4.150999E-3,-1.725098E-3,1.334214E-3,1.0343099E-2,4.4678804E-3,-1.4495864E-3,1.4753514E-2,3.7796204E-3,6.54544E-4,-6.1135185E-3,1.6542217E-3,1.060744E-2],"categories":[],"categories_nodes":[],"categories_segments":[],"categories_sizes":[],"default_left":[0,0,0,0,0,0,0,0,0,0,0,0,0,0,0,0,0,0,0,0,0,0,0,0,0,0,0,0,0,0,0,0,0,0,0,0,0,0,0,0,0,0,0,0,0,0,0,0,0,0,0,0,0,0,0,0,0,0,0,0,0,0,0,0,0,0,0,0,0,0,0,0,0,0,0,0,0,0,0,0,0,0,0,0,0,0,0,0,0,0,0,0,0,0,0,0,0,0,0,0,0,0,0,0,0,0,0,0,0,0,0,0,0,0,0,0,0,0,0,0,0,0,0,0,0,0,0,0,0,0,0,0,0,0,0,0,0,0,0,0,0,0,0,0,0,0,0,0,0,0,0,0,0,0,0,0,0,0,0,0,0,0,0],"id":6,"left_children":[1,3,5,7,9,11,13,15,17,19,21,23,25,27,29,31,33,35,37,39,41,43,45,-1,47,49,-1,51,53,-1,-1,55,57,59,61,63,65,67,69,71,73,75,77,79,81,83,85,87,89,-1,-1,91,-1,93,95,97,99,101,103,105,107,109,111,113,115,117,119,121,123,-1,-1,125,127,129,131,-1,-1,133,135,137,139,141,143,145,147,-1,-1,-1,149,151,153,155,157,159,161,-1,-1,-1,-1,-1,-1,-1,-1,-1,-1,-1,-1,-1,-1,-1,-1,-1,-1,-1,-1,-1,-1,-1,-1,-1,-1,-1,-1,-1,-1,-1,-1,-1,-1,-1,-1,-1,-1,-1,-1,-1,-1,-1,-1,-1,-1,-1,-1,-1,-1,-1,-1,-1,-1,-1,-1,-1,-1,-1,-1,-1,-1,-1,-1,-1,-1,-1,-1],"loss_changes":[3.6942675E0,3.561831E0,4.24576E0,3.5309095E0,4.6717353E0,3.7863626E0,5.066149E0,3.588777E0,3.6177597E0,4.305896E0,3.3540165E0,3.3327012E0,2.4368367E0,3.9532533E0,1.7336016E0,2.5095153E0,3.4317074E0,3.229445E0,5.5097923E0,3.822441E0,2.1417966E0,3.821385E0,4.2682467E0,0E0,2.767102E0,6.040556E-1,0E0,3.3419847E0,4.2644286E0,0E0,0E0,2.0661917E0,1.0856011E0,2.6061714E0,2.8711634E0,3.8471284E0,4.553669E0,5.063153E0,2.3972034E0,3.9468904E0,4.3590527E0,1.1489191E0,1.0430351E0,3.242455E0,3.5534892E0,2.2406883E0,1.9877447E0,1.8029087E0,2.6184332E0,0E0,0E0,2.8206882E0,0E0,3.784729E0,3.1918771E0,1.8049172E-1,1.728631E0,5.9700215E-1,2.3322111E-1,1.5377988E0,1.1715446E0,2.418374E0,1.8992182E0,2.0477293E0,3.9628534E0,3.5371687E0,3.6740246E0,3.5722046E0,3.270703E0,0E0,0E0,4.6140265E0,2.4441943E0,2.959405E0,3.470479E0,0E0,0E0,3.704421E-1,9.3171704E-1,3.096931E0,3.493165E0,1.8470063E0,1.1256196E0,1.5743499E0,7.0306885E-1,0E0,0E0,0E0,1.84821E0,2.5953119E0,2.7176702E0,1.8235855E0,3.899087E0,2.4149141E0,2.7550893E0,0E0,0E0,0E0,0E0,0E0,0E0,0E0,0E0,0E0,0E0,0E0,0E0,0E0,0E0,0E0,0E0,0E0,0E0,0E0,0E0,0E0,0E0,0E0,0E0,0E0,0E0,0E0,0E0,0E0,0E0,0E0,0E0,0E0,0E0,0E0,0E0,0E0,0E0,0E0,0E0,0E0,0E0,0E0,0E0,0E0,0E0,0E0,0E0,0E0,0E0,0E0,0E0,0E0,0E0,0E0,0E0,0E0,0E0,0E0,0E0,0E0,0E0,0E0,0E0,0E0,0E0,0E0,0E0],"parents":[2147483647,0,0,1,1,2,2,3,3,4,4,5,5,6,6,7,7,8,8,9,9,10,10,11,11,12,12,13,13,14,14,15,15,16,16,17,17,18,18,19,19,20,20,21,21,22,22,24,24,25,25,27,27,28,28,31,31,32,32,33,33,34,34,35,35,36,36,37,37,38,38,39,39,40,40,41,41,42,42,43,43,44,44,45,45,46,46,47,47,48,48,51,51,53,53,54,54,55,55,56,56,57,57,58,58,59,59,60,60,61,61,62,62,63,63,64,64,65,65,66,66,67,67,68,68,71,71,72,72,73,73,74,74,77,77,78,78,79,79,80,80,81,81,82,82,83,83,84,84,88,88,89,89,90,90,91,91,92,92,93,93,94,94],"right_children":[2,4,6,8,10,12,14,16,18,20,22,24,26,28,30,32,34,36,38,40,42,44,46,-1,48,50,-1,52,54,-1,-1,56,58,60,62,64,66,68,70,72,74,76,78,80,82,84,86,88,90,-1,-1,92,-1,94,96,98,100,102,104,106,108,110,112,114,116,118,120,122,124,-1,-1,126,128,130,132,-1,-1,134,136,138,140,142,144,146,148,-1,-1,-1,150,152,154,156,158,160,162,-1,-1,-1,-1,-1,-1,-1,-1,-1,-1,-1,-1,-1,-1,-1,-1,-1,-1,-1,-1,-1,-1,-1,-1,-1,-1,-1,-1,-1,-1,-1,-1,-1,-1,-1,-1,-1,-1,-1,-1,-1,-1,-1,-1,-1,-1,-1,-1,-1,-1,-1,-1,-1,-1,-1,-1,-1,-1,-1,-1,-1,-1,-1,-1,-1,-1,-1,-1],"split_conditions":[3.6388245E-1,1.2680645E-1,-2.9609898E-1,-1.1101068E0,-2.801623E-1,1.2293844E0,1.5629125E0,1.6313913E-1,1.3500729E-1,4.2034367E-1,6.98782E-2,-1.013562E0,3.6388943E-1,-9.081624E-2,5.315172E-1,3.0358514E-2,-1.2494877E-1,-3.364527E-1,1.6771909E0,-1.9353801E-2,-2.0615377E-1,7.683226E-1,6.9456436E-2,-1.4054989E-2,-1.966795E-1,-2.9075712E-1,1.6804503E-2,1.5773659E0,1.6141787E0,1.5166518E-2,2.0190603E-3,-3.8472784E-1,-2.6037797E-1,-3.9230576E-1,2.616837E-1,-1.3602122E0,-1.8316466E-1,-3.395065E-1,1.3907859E-1,-3.5994676E-1,-1.962395E-3,1.3382118E0,5.716638E-1,-5.250626E-1,-1.3623174E-1,1.8185021E-1,2.849985E-1,-1.5535794E0,6.76824E-1,5.2667805E-3,-1.9906643E-3,-3.866847E-3,-1.0457785E-2,3.91561E-1,-4.7029665E-1,-5.034668E-1,-1.0240424E0,1.2840142E0,-1.9900034E-1,-5.9526987E-2,-1.7036617E-1,-5.7794946E-1,-1.7365427E-1,-2.031374E-1,-2.06952E-1,1.4305695E0,-3.80241E-1,-3.126225E-1,7.898088E-2,1.18836375E-4,1.730285E-2,-5.7170415E-1,-7.758342E-2,2.7359896E0,-8.7350655E-1,2.3126106E-3,1.5421453E-2,-1.8478048E-1,-1.4822159E0,-1.358465E0,1.2358099E0,-4.4871733E-2,-3.5931613E-2,-3.4211266E-1,-2.4074794E-1,9.717244E-3,-2.9654964E-3,-1.2721051E-2,-1.3579491E0,-7.864772E-1,6.986397E-1,1.3589823E-1,-1.3957728E-1,9.119871E-1,8.0306344E-2,2.46037E-4,-1.7399732E-2,7.585045E-4,-4.337783E-3,4.1683735E-3,1.0654289E-2,9.949896E-4,8.321364E-3,-3.8972768E-4,-6.113932E-3,1.3656996E-3,-7.6806303E-3,-9.178932E-3,1.4684936E-3,8.520366E-3,1.8873465E-3,-4.612754E-3,2.3522926E-3,2.4849703E-3,-5.9481356E-3,-3.307271E-3,7.413953E-4,-1.0953042E-4,7.523557E-3,6.072485E-4,-2.7499327E-3,6.394827E-3,1.2362596E-3,-1.4477799E-3,2.758369E-3,-2.3001E-3,-1.6652267E-2,-4.340667E-3,-3.3551262E-4,-5.403024E-3,9.676507E-3,-1.1383035E-5,-1.7047279E-2,3.0551854E-4,7.450889E-3,-7.657546E-3,-1.4291216E-4,-9.1158156E-4,6.0218666E-3,6.2826043E-4,-1.3376954E-2,-1.234848E-2,-2.5129158E-3,-2.7029342E-3,6.120821E-3,-2.2578132E-3,-1.1784669E-2,-4.336016E-3,2.5368202E-3,2.9442515E-3,-3.7166425E-3,4.150999E-3,-1.725098E-3,1.334214E-3,1.0343099E-2,4.4678804E-3,-1.4495864E-3,1.4753514E-2,3.7796204E-3,6.54544E-4,-6.1135185E-3,1.6542217E-3,1.060744E-2],"split_indices":[144,199,12,184,155,180,323,179,89,42,255,179,155,38,204,247,313,177,248,189,288,295,189,0,79,23,0,63,221,0,0,67,190,161,327,147,222,246,3,38,262,3,42,7,166,113,151,268,30,0,0,58,0,19,308,14,136,39,79,265,246,129,112,266,277,248,287,275,309,0,0,25,137,195,31,0,0,13,292,15,11,258,157,265,152,0,0,0,138,77,25,199,115,125,137,0,0,0,0,0,0,0,0,0,0,0,0,0,0,0,0,0,0,0,0,0,0,0,0,0,0,0,0,0,0,0,0,0,0,0,0,0,0,0,0,0,0,0,0,0,0,0,0,0,0,0,0,0,0,0,0,0,0,0,0,0,0,0,0,0,0,0,0],"split_type":[0,0,0,0,0,0,0,0,0,0,0,0,0,0,0,0,0,0,0,0,0,0,0,0,0,0,0,0,0,0,0,0,0,0,0,0,0,0,0,0,0,0,0,0,0,0,0,0,0,0,0,0,0,0,0,0,0,0,0,0,0,0,0,0,0,0,0,0,0,0,0,0,0,0,0,0,0,0,0,0,0,0,0,0,0,0,0,0,0,0,0,0,0,0,0,0,0,0,0,0,0,0,0,0,0,0,0,0,0,0,0,0,0,0,0,0,0,0,0,0,0,0,0,0,0,0,0,0,0,0,0,0,0,0,0,0,0,0,0,0,0,0,0,0,0,0,0,0,0,0,0,0,0,0,0,0,0,0,0,0,0,0,0],"sum_hessian":[3.72E3,3.152E3,5.68E2,2.564E3,5.88E2,2.62E2,3.06E2,2.35E2,2.329E3,3.11E2,2.77E2,2.46E2,1.6E1,2.92E2,1.4E1,7.8E1,1.57E2,1.899E3,4.3E2,2.54E2,5.7E1,2.27E2,5E1,4E0,2.42E2,1.2E1,4E0,1.12E2,1.8E2,1E1,4E0,5.4E1,2.4E1,5.4E1,1.03E2,9.67E2,9.32E2,4.2E2,1E1,2.02E2,5.2E1,7E0,5E1,1.92E2,3.5E1,3.8E1,1.2E1,7.4E1,1.68E2,8E0,4E0,1.09E2,3E0,1.7E2,1E1,6E0,4.8E1,1.6E1,8E0,3.5E1,1.9E1,6.3E1,4E1,4.7E1,9.2E2,3.79E2,5.53E2,1.5E2,2.7E2,3E0,7E0,2.4E1,1.78E2,3.3E1,1.9E1,4E0,3E0,8E0,4.2E1,8.8E1,1.04E2,2.1E1,1.4E1,2.4E1,1.4E1,7E0,5E0,4E0,7E1,1.26E2,4.2E1,7.3E1,3.6E1,1.33E2,3.7E1,5E0,5E0,3E0,3E0,2.2E1,2.6E1,1.3E1,3E0,3E0,5E0,3E1,5E0,1.6E1,3E0,2.3E1,4E1,2E1,2E1,9E0,3.8E1,6.9E1,8.51E2,3.63E2,1.6E1,1.08E2,4.45E2,5.9E1,9.1E1,2.06E2,6.4E1,1.4E1,1E1,6.2E1,1.16E2,3E1,3E0,4E0,1.5E1,3E0,5E0,4E0,3.8E1,2.3E1,6.5E1,1E2,4E0,1.1E1,1E1,6E0,8E0,7E0,1.7E1,7E0,7E0,1.3E1,5.7E1,2.4E1,1.02E2,3E1,1.2E1,5.5E1,1.8E1,1.5E1,2.1E1,1.18E2,1.5E1,2.1E1,1.6E1],"tree_param":{"num_deleted":"0","num_feature":"330","num_nodes":"163","size_leaf_vector":"1"}},{"base_weights":[-3.076663E-3,-3.767707E-1,-5.230316E-4,-5.5947613E-2,-6.4776564E-1,9.401444E-3,-9.1619834E-2,3.1611992E-3,-3.0779894E-3,-1.5397096E-2,-5.0683506E-3,3.1996E-2,-2.8205013E-2,-7.384273E-2,-1.6570082E-2,2.4741683E-3,8.969435E-2,2.5865886E-1,-4.0473066E-2,-4.7738753E-2,-4.6332672E-1,-1.3242097E-3,1.4685021E-2,4.5818005E-2,2.3075064E-1,7.140568E-2,7.751923E-1,-3.4770465E-1,-3.0181132E-2,1.4752235E-1,-8.356251E-2,-1.4892742E-1,-8.5715306E-1,-8.054647E-2,2.5084456E-2,9.5384076E-2,-1.0464892E-1,-3.0914782E-2,3.182121E-1,-8.934819E-3,1.7525402E-1,1.7239869E-2,3.724337E-3,-7.36833E-1,-1.3305645E-1,1.3719258E-1,-4.6217747E-2,-9.33011E-3,2.4915259E-1,-2.3497546E-1,-1.9521503E-2,-8.728997E-3,4.5262408E-3,-1.7227894E-2,-7.3654363E-3,-1.73545E-3,7.6222667E-3,1.2160308E-2,3.3200026E-4,2.7442983E-4,3.7175703E-3,-3.7023397E-3,1.7569078E-3,-1.2801778E-2,7.0631894E-4,4.195767E-3,1.2592222E-2,7.203957E-3,-7.469204E-4,-3.7344526E-3,-1.7822511E-2,-4.7077904E-3,4.4246344E-3,-7.744484E-3,3.2609818E-3,-5.6825564E-3,-5.925451E-4,-3.6740329E-3,6.2110284E-3,-2.4548576E-3,-1.3212371E-2,5.323549E-4,-2.934762E-3,-1.7093954E-3,3.6223747E-3],"categories":[],"categories_nodes":[],"categories_segments":[],"categories_sizes":[],"default_left":[0,0,0,0,0,0,0,0,0,0,0,0,0,0,0,0,0,0,0,0,0,0,0,0,0,0,0,0,0,0,0,0,0,0,0,0,0,0,0,0,0,0,0,0,0,0,0,0,0,0,0,0,0,0,0,0,0,0,0,0,0,0,0,0,0,0,0,0,0,0,0,0,0,0,0,0,0,0,0,0,0,0,0,0,0],"id":7,"left_children":[1,3,5,7,9,11,13,-1,-1,-1,-1,15,17,19,-1,21,23,25,27,29,31,33,-1,35,37,39,41,43,45,47,49,51,53,55,57,59,61,63,65,-1,67,-1,-1,69,71,73,75,-1,77,79,81,-1,83,-1,-1,-1,-1,-1,-1,-1,-1,-1,-1,-1,-1,-1,-1,-1,-1,-1,-1,-1,-1,-1,-1,-1,-1,-1,-1,-1,-1,-1,-1,-1,-1],"loss_changes":[3.6556377E0,2.2242365E0,3.4418204E0,4.648235E-1,1.0972075E0,2.9179265E0,6.051771E0,0E0,0E0,0E0,0E0,3.6534882E0,4.546797E0,3.7193666E0,0E0,4.830553E0,4.4826665E0,5.070942E0,3.9009085E0,2.4325924E0,2.7201767E0,2.9624188E0,0E0,4.1492014E0,3.946168E0,2.6615505E0,1.8973732E0,3.242988E0,3.221902E0,4.0823584E0,2.8365283E0,8.290275E-1,3.2371902E-1,4.9948626E0,3.636247E0,4.330331E0,3.5862746E0,2.4849112E0,3.39649E0,0E0,2.070685E0,0E0,0E0,2.263105E0,1.7644403E0,4.081856E0,3.2792106E0,0E0,3.0551622E0,4.109111E0,1.7294292E0,0E0,2.8335923E-1,0E0,0E0,0E0,0E0,0E0,0E0,0E0,0E0,0E0,0E0,0E0,0E0,0E0,0E0,0E0,0E0,0E0,0E0,0E0,0E0,0E0,0E0,0E0,0E0,0E0,0E0,0E0,0E0,0E0,0E0,0E0,0E0],"parents":[2147483647,0,0,1,1,2,2,3,3,4,4,5,5,6,6,11,11,12,12,13,13,15,15,16,16,17,17,18,18,19,19,20,20,21,21,23,23,24,24,25,25,26,26,27,27,28,28,29,29,30,30,31,31,32,32,33,33,34,34,35,35,36,36,37,37,38,38,40,40,43,43,44,44,45,45,46,46,48,48,49,49,50,50,52,52],"right_children":[2,4,6,8,10,12,14,-1,-1,-1,-1,16,18,20,-1,22,24,26,28,30,32,34,-1,36,38,40,42,44,46,48,50,52,54,56,58,60,62,64,66,-1,68,-1,-1,70,72,74,76,-1,78,80,82,-1,84,-1,-1,-1,-1,-1,-1,-1,-1,-1,-1,-1,-1,-1,-1,-1,-1,-1,-1,-1,-1,-1,-1,-1,-1,-1,-1,-1,-1,-1,-1,-1,-1],"split_conditions":[-2.073478E-1,-2.9602614E-1,1.2343401E0,-9.1169035E-1,7.46603E-2,3.7193662E-1,2.7362201E0,3.1611992E-3,-3.0779894E-3,-1.5397096E-2,-5.0683506E-3,-1.01258285E-1,-1.5401419E0,1.448988E0,-1.6570082E-2,1.6439874E0,3.6508912E-1,-1.7382117E-1,-1.4035628E0,-1.1151379E0,7.757647E-1,-1.1788687E0,1.4685021E-2,5.767938E-1,-6.758367E-1,-9.832358E-1,-2.8019672E-2,-3.1564492E-1,-1.3316487E0,-1.3946992E0,-4.9652714E-1,-1.2828794E0,8.298504E-2,6.417889E-1,-1.8066113E0,3.1328902E-1,-2.494084E-1,-1.5275828E0,5.029213E-1,-8.934819E-3,1.2909396E-1,1.7239869E-2,3.724337E-3,1.0826611E-1,1.0442835E0,-2.0577964E-1,-1.5576954E0,-9.33011E-3,-1.1979713E0,6.851043E-1,-1.482387E-1,-8.728997E-3,1.502652E0,-1.7227894E-2,-7.3654363E-3,-1.73545E-3,7.6222667E-3,1.2160308E-2,3.3200026E-4,2.7442983E-4,3.7175703E-3,-3.7023397E-3,1.7569078E-3,-1.2801778E-2,7.0631894E-4,4.195767E-3,1.2592222E-2,7.203957E-3,-7.469204E-4,-3.7344526E-3,-1.7822511E-2,-4.7077904E-3,4.4246344E-3,-7.744484E-3,3.2609818E-3,-5.6825564E-3,-5.925451E-4,-3.6740329E-3,6.2110284E-3,-2.4548576E-3,-1.3212371E-2,5.323549E-4,-2.934762E-3,-1.7093954E-3,3.6223747E-3],"split_indices":[277,287,154,9,158,191,250,0,0,0,0,310,246,213,0,226,154,244,259,194,55,180,0,328,209,185,55,12,92,153,315,128,5,255,191,44,254,132,1,0,234,0,0,125,162,134,72,0,281,234,89,0,224,0,0,0,0,0,0,0,0,0,0,0,0,0,0,0,0,0,0,0,0,0,0,0,0,0,0,0,0,0,0,0,0],"split_type":[0,0,0,0,0,0,0,0,0,0,0,0,0,0,0,0,0,0,0,0,0,0,0,0,0,0,0,0,0,0,0,0,0,0,0,0,0,0,0,0,0,0,0,0,0,0,0,0,0,0,0,0,0,0,0,0,0,0,0,0,0,0,0,0,0,0,0,0,0,0,0,0,0,0,0,0,0,0,0,0,0,0,0,0,0],"sum_hessian":[3.83E3,2.5E1,3.805E3,1.2E1,1.3E1,3.432E3,3.73E2,4E0,8E0,6E0,7E0,2.144E3,1.288E3,3.67E2,6E0,1.419E3,7.25E2,5.2E1,1.236E3,3.45E2,2.2E1,1.414E3,5E0,5.54E2,1.71E2,3.9E1,1.3E1,3.9E1,1.197E3,5.3E1,2.92E2,1.3E1,9E0,3.53E2,1.061E3,4.17E2,1.37E2,4.3E1,1.28E2,5E0,3.4E1,8E0,5E0,1.3E1,2.6E1,1.04E2,1.093E3,6E0,4.7E1,8.6E1,2.06E2,3E0,1E1,5E0,4E0,3.38E2,1.5E1,6E0,1.055E3,2.62E2,1.55E2,8.7E1,5E1,3E0,4E1,1.14E2,1.4E1,1.5E1,1.9E1,6E0,7E0,1.9E1,7E0,9E0,9.5E1,3.4E1,1.059E3,1E1,3.7E1,7.6E1,1E1,1.56E2,5E1,7E0,3E0],"tree_param":{"num_deleted":"0","num_feature":"330","num_nodes":"85","size_leaf_vector":"1"}},{"base_weights":[5.5797026E-3,8.592175E-3,-3.665463E-1,2.8666179E-3,1.5219478E-1,-6.128939E-1,5.404963E-2,-2.4474221E-3,1.7452802E-1,5.55891E-1,7.753766E-2,-7.880705E-1,-1.6682879E-3,5.767751E-3,-1.3932668E-1,6.7535224E-3,-9.755605E-2,5.623856E-1,9.50173E-2,7.251195E-1,-2.6906983E-3,-3.4047702E-1,1.354132E-1,-6.07688E-3,-1.50069315E-2,4.2239597E-4,-3.9840033E-3,3.0431664E-2,-3.264909E-2,-2.9767758E-1,1.5254783E-2,1.4851483E-2,3.13898E-1,-1.4779519E-1,2.5222152E-1,1.6330339E-2,6.650577E-3,-9.679814E-3,-7.6165935E-4,1.8458635E-1,-3.600249E-1,-3.0098541E-3,8.460025E-2,-2.3479417E-2,-4.1038692E-1,-6.292881E-1,-1.6545752E-1,-1.3028751E-1,1.7136067E-1,6.8117934E-3,7.5656215E-5,-1.0100127E-2,-1.3118342E-2,4.2851472E-1,-1.04361065E-1,2.7127045E-1,-6.589544E-2,-1.0804765E-2,1.1887018E-3,4.4908496E-3,-2.2707738E-4,3.491938E-3,7.0930895E-4,-5.7282613E-4,4.294178E-3,5.239867E-3,-8.922563E-3,-3.5509027E-3,-1.49642145E-2,-5.0674225E-3,8.1032177E-4,7.918298E-3,-2.8415222E-3,8.101784E-3,2.3239503E-4,2.3716642E-3,-4.662173E-3,-3.6185767E-4,8.740579E-3,-7.823849E-3,-7.099614E-5,6.7872256E-3,1.6911025E-3,-2.997588E-3,7.5849574E-3],"categories":[],"categories_nodes":[],"categories_segments":[],"categories_sizes":[],"default_left":[0,0,0,0,0,0,0,0,0,0,0,0,0,0,0,0,0,0,0,0,0,0,0,0,0,0,0,0,0,0,0,0,0,0,0,0,0,0,0,0,0,0,0,0,0,0,0,0,0,0,0,0,0,0,0,0,0,0,0,0,0,0,0,0,0,0,0,0,0,0,0,0,0,0,0,0,0,0,0,0,0,0,0,0,0],"id":8,"left_children":[1,3,5,7,9,11,13,15,17,19,21,23,-1,-1,25,27,29,31,33,35,-1,37,39,-1,-1,-1,-1,41,43,45,47,-1,49,51,53,-1,-1,-1,-1,55,57,59,61,63,65,67,69,71,73,-1,-1,-1,75,77,79,81,83,-1,-1,-1,-1,-1,-1,-1,-1,-1,-1,-1,-1,-1,-1,-1,-1,-1,-1,-1,-1,-1,-1,-1,-1,-1,-1,-1,-1],"loss_changes":[4.187915E0,3.0450108E0,3.141511E0,3.2506511E0,4.2366056E0,1.6200557E0,7.4202025E-1,3.0258424E0,3.2463186E0,2.801362E0,2.9734368E0,4.1401577E-1,0E0,0E0,1.4403583E-1,2.942681E0,6.8901834E0,1.2609344E0,3.4726806E0,1.1609783E0,0E0,1.0805472E0,2.6732163E0,0E0,0E0,0E0,0E0,3.5688694E0,4.091422E0,4.718892E0,4.475448E0,0E0,3.7876356E-1,2.2693183E0,3.5021899E0,0E0,0E0,0E0,0E0,2.1457288E0,1.3486334E0,3.6831725E0,3.987494E0,3.8292584E0,2.9399014E0,3.451046E0,2.4984546E0,2.8067474E0,4.829868E0,0E0,0E0,0E0,1.2882738E0,1.7773361E0,7.086513E-1,1.7181587E0,1.701366E0,0E0,0E0,0E0,0E0,0E0,0E0,0E0,0E0,0E0,0E0,0E0,0E0,0E0,0E0,0E0,0E0,0E0,0E0,0E0,0E0,0E0,0E0,0E0,0E0,0E0,0E0,0E0,0E0],"parents":[2147483647,0,0,1,1,2,2,3,3,4,4,5,5,6,6,7,7,8,8,9,9,10,10,11,11,14,14,15,15,16,16,17,17,18,18,19,19,21,21,22,22,27,27,28,28,29,29,30,30,32,32,33,33,34,34,39,39,40,40,41,41,42,42,43,43,44,44,45,45,46,46,47,47,48,48,52,52,53,53,54,54,55,55,56,56],"right_children":[2,4,6,8,10,12,14,16,18,20,22,24,-1,-1,26,28,30,32,34,36,-1,38,40,-1,-1,-1,-1,42,44,46,48,-1,50,52,54,-1,-1,-1,-1,56,58,60,62,64,66,68,70,72,74,-1,-1,-1,76,78,80,82,84,-1,-1,-1,-1,-1,-1,-1,-1,-1,-1,-1,-1,-1,-1,-1,-1,-1,-1,-1,-1,-1,-1,-1,-1,-1,-1,-1,-1],"split_conditions":[2.736681E0,1.5516448E0,5.2406144E-1,2.4659781E0,-1.1042737E0,-1.0596004E0,3.9980578E-1,1.3131881E0,-2.0433143E-1,-3.231834E-1,-9.6814644E-1,-6.436288E-1,-1.6682879E-3,5.767751E-3,-1.06169924E-1,2.2670254E-1,-4.2256874E-1,-6.3909376E-1,-1.8073526E-1,-3.3713037E-1,-2.6906983E-3,-9.242368E-2,1.3690407E0,-6.07688E-3,-1.50069315E-2,4.2239597E-4,-3.9840033E-3,-1.21672906E-1,1.9116482E0,-1.5195028E-1,-3.044254E-1,1.4851483E-2,7.633985E-1,-1.2923733E0,3.548123E-2,1.6330339E-2,6.650577E-3,-9.679814E-3,-7.6165935E-4,1.0385728E0,-4.6222616E-2,-1.5694691E0,-4.2865966E-2,1.5628008E0,-1.295913E0,-1.9385728E-1,1.4311197E0,-1.4797963E0,3.0372053E-1,6.8117934E-3,7.5656215E-5,-1.0100127E-2,2.3489796E-1,-3.793284E-1,-1.4172397E0,-1.7477955E-1,1.2316552E0,-1.0804765E-2,1.1887018E-3,4.4908496E-3,-2.2707738E-4,3.491938E-3,7.0930895E-4,-5.7282613E-4,4.294178E-3,5.239867E-3,-8.922563E-3,-3.5509027E-3,-1.49642145E-2,-5.0674225E-3,8.1032177E-4,7.918298E-3,-2.8415222E-3,8.101784E-3,2.3239503E-4,2.3716642E-3,-4.662173E-3,-3.6185767E-4,8.740579E-3,-7.823849E-3,-7.099614E-5,6.7872256E-3,1.6911025E-3,-2.997588E-3,7.5849574E-3],"split_indices":[74,147,283,34,10,51,58,158,90,282,63,176,0,0,121,143,281,150,223,309,0,176,55,0,0,0,0,86,155,60,232,0,275,96,5,0,0,0,0,156,41,70,97,180,301,167,171,83,228,0,0,0,187,190,149,75,239,0,0,0,0,0,0,0,0,0,0,0,0,0,0,0,0,0,0,0,0,0,0,0,0,0,0,0,0],"split_type":[0,0,0,0,0,0,0,0,0,0,0,0,0,0,0,0,0,0,0,0,0,0,0,0,0,0,0,0,0,0,0,0,0,0,0,0,0,0,0,0,0,0,0,0,0,0,0,0,0,0,0,0,0,0,0,0,0,0,0,0,0,0,0,0,0,0,0,0,0,0,0,0,0,0,0,0,0,0,0,0,0,0,0,0,0],"sum_hessian":[3.732E3,3.703E3,2.9E1,3.562E3,1.41E2,1.8E1,1.1E1,3.456E3,1.06E2,2.1E1,1.2E2,1.3E1,5E0,4E0,7E0,3.152E3,3.04E2,1.7E1,8.9E1,1.7E1,4E0,1.4E1,1.06E2,4E0,9E0,3E0,4E0,1.969E3,1.183E3,1.09E2,1.95E2,6E0,1.1E1,3.5E1,5.4E1,8E0,9E0,7E0,7E0,9.7E1,9E0,1.218E3,7.51E2,1.156E3,2.7E1,3E1,7.9E1,1.01E2,9.4E1,8E0,3E0,7E0,2.8E1,3.6E1,1.8E1,7.2E1,2.5E1,5E0,4E0,4.5E1,1.173E3,1.81E2,5.7E2,1.112E3,4.4E1,4E0,2.3E1,1.3E1,1.7E1,4.7E1,3.2E1,6E0,9.5E1,3E1,6.4E1,1.8E1,1E1,7E0,2.9E1,3E0,1.5E1,3.8E1,3.4E1,2.1E1,4E0],"tree_param":{"num_deleted":"0","num_feature":"330","num_nodes":"85","size_leaf_vector":"1"}},{"base_weights":[-7.177204E-3,-4.8653223E-2,1.798432E-2,-5.5319045E-2,3.1086493E-1,2.0530425E-2,-6.440212E-1,-1.5904825E-2,-1.2100412E-1,-9.717592E-2,6.165733E-1,1.3258955E-1,7.077781E-3,-1.48067735E-2,-1.490224E-3,-3.451699E-2,2.0851193E-1,5.517305E-1,-1.3519335E-1,3.501441E-3,-4.5724907E-3,1.7231096E-1,1.4615615E-2,4.0528747E-1,7.398424E-2,-1.0848773E-3,2.3852167E-1,3.2299552E-2,-8.840123E-2,7.397019E-1,9.096209E-2,3.4365552E-3,1.5041651E-2,-1.6923518E-1,1.1982537E-1,4.812911E-3,1.1909545E-4,2.5600195E-1,1.8936727E-2,1.8540625E-1,-6.730855E-2,9.311282E-3,-1.7606196E-1,-1.2510204E-3,4.243768E-1,3.739847E-1,3.558581E-3,-1.2862071E-1,1.12802364E-1,1.7115287E-2,1.6518016E-3,2.4467407E-2,1.5526204E-2,-2.2684E-1,-3.1863526E-2,2.95506E-1,-2.8407422E-1,5.283709E-2,1.3404912E-2,6.123814E-1,1.2079807E-1,1.8927617E-2,-3.12433E-1,7.445883E-5,1.8697195E-1,-7.812403E-1,-1.0972193E-1,8.764394E-2,-1.0556493E-2,2.4354821E-1,7.095212E-1,1.0671249E-2,2.5421362E-3,-1.7701845E-4,1.1071719E-2,-2.8929833E-5,-3.3219513E-3,-1.5950591E-3,3.928297E-3,-3.4478006E-3,2.6519354E-3,-5.5264593E-3,-2.1840213E-3,-2.2925623E-3,4.413898E-3,8.131708E-3,-3.404101E-3,-3.0582488E-4,-1.2043346E-2,-3.0685666E-3,5.297051E-3,1.5931264E-2,2.8487549E-3,7.1959393E-3,9.2088216E-4,-9.376212E-3,8.91904E-4,-1.257388E-4,-7.594426E-3,-3.6661653E-4,1.3020026E-3,1.2587992E-3,6.5048556E-3,-1.5657349E-2,-3.8243541E-3,3.4974036E-3,-3.4465601E-3,3.331732E-4,8.227175E-3,6.4038076E-3,-5.2954385E-4,5.342927E-3,1.420146E-2],"categories":[],"categories_nodes":[],"categories_segments":[],"categories_sizes":[],"default_left":[0,0,0,0,0,0,0,0,0,0,0,0,0,0,0,0,0,0,0,0,0,0,0,0,0,0,0,0,0,0,0,0,0,0,0,0,0,0,0,0,0,0,0,0,0,0,0,0,0,0,0,0,0,0,0,0,0,0,0,0,0,0,0,0,0,0,0,0,0,0,0,0,0,0,0,0,0,0,0,0,0,0,0,0,0,0,0,0,0,0,0,0,0,0,0,0,0,0,0,0,0,0,0,0,0,0,0,0,0,0,0,0,0],"id":9,"left_children":[1,3,5,7,9,11,13,15,17,19,21,23,25,-1,-1,27,29,31,33,-1,-1,35,-1,37,39,41,43,45,47,49,51,-1,-1,53,55,-1,-1,57,-1,59,61,63,65,67,69,71,73,75,77,-1,-1,79,-1,81,83,85,87,89,-1,91,93,95,97,99,101,103,105,107,-1,109,111,-1,-1,-1,-1,-1,-1,-1,-1,-1,-1,-1,-1,-1,-1,-1,-1,-1,-1,-1,-1,-1,-1,-1,-1,-1,-1,-1,-1,-1,-1,-1,-1,-1,-1,-1,-1,-1,-1,-1,-1,-1,-1],"loss_changes":[3.9248104E0,3.4202032E0,3.959062E0,3.6096272E0,3.303195E0,3.5160394E0,1.2176363E0,3.6536155E0,5.0669327E0,7.4107623E-1,1.6921277E0,3.9654012E0,3.9373462E0,0E0,0E0,2.9083447E0,4.1162825E0,1.1893423E0,4.4737873E0,0E0,0E0,1.3873665E-1,0E0,4.646505E0,3.2713063E0,3.665286E0,3.1645021E0,3.5438201E0,3.6317692E0,2.2452683E0,3.1728797E0,0E0,0E0,3.5774832E0,4.4123425E0,0E0,0E0,4.307666E0,0E0,3.1260123E0,1.9506642E0,3.1212063E0,4.4509535E0,1.8890148E0,1.8896875E0,1.6026511E0,3.24181E0,3.52392E0,2.0326767E0,0E0,0E0,1.7508386E0,0E0,3.2603016E0,4.449452E0,4.4708633E0,2.2665875E0,1.9506388E0,0E0,2.2075815E0,2.074846E0,1.4860685E0,1.1073527E0,3.2373548E0,2.148579E0,8.362913E-1,3.4110475E0,8.0010915E-1,0E0,1.0743071E0,6.2808514E-1,0E0,0E0,0E0,0E0,0E0,0E0,0E0,0E0,0E0,0E0,0E0,0E0,0E0,0E0,0E0,0E0,0E0,0E0,0E0,0E0,0E0,0E0,0E0,0E0,0E0,0E0,0E0,0E0,0E0,0E0,0E0,0E0,0E0,0E0,0E0,0E0,0E0,0E0,0E0,0E0,0E0,0E0],"parents":[2147483647,0,0,1,1,2,2,3,3,4,4,5,5,6,6,7,7,8,8,9,9,10,10,11,11,12,12,15,15,16,16,17,17,18,18,21,21,23,23,24,24,25,25,26,26,27,27,28,28,29,29,30,30,33,33,34,34,37,37,39,39,40,40,41,41,42,42,43,43,44,44,45,45,46,46,47,47,48,48,51,51,53,53,54,54,55,55,56,56,57,57,59,59,60,60,61,61,62,62,63,63,64,64,65,65,66,66,67,67,69,69,70,70],"right_children":[2,4,6,8,10,12,14,16,18,20,22,24,26,-1,-1,28,30,32,34,-1,-1,36,-1,38,40,42,44,46,48,50,52,-1,-1,54,56,-1,-1,58,-1,60,62,64,66,68,70,72,74,76,78,-1,-1,80,-1,82,84,86,88,90,-1,92,94,96,98,100,102,104,106,108,-1,110,112,-1,-1,-1,-1,-1,-1,-1,-1,-1,-1,-1,-1,-1,-1,-1,-1,-1,-1,-1,-1,-1,-1,-1,-1,-1,-1,-1,-1,-1,-1,-1,-1,-1,-1,-1,-1,-1,-1,-1,-1,-1,-1],"split_conditions":[-1.0315544E-1,2.29244E0,3.19929E0,-1.355118E-1,-3.5280633E-1,-1.797341E-1,-2.6724314E-2,9.1393614E-1,-1.1429776E0,-1.6015375E0,-1.0772165E-1,-7.1844685E-1,1.9756846E0,-1.48067735E-2,-1.490224E-3,-6.034923E-1,-1.0224175E0,-4.4843215E-1,1.0443354E0,3.501441E-3,-4.5724907E-3,-9.896814E-2,1.4615615E-2,4.4990632E-1,9.906527E-2,1.3648245E0,-3.328213E-1,-1.4489568E0,9.916919E-1,-3.5026583E-1,1.4249296E0,3.4365552E-3,1.5041651E-2,-4.499157E-2,-2.3987446E-2,4.812911E-3,1.1909545E-4,3.438543E-1,1.8936727E-2,-1.1393338E0,-4.108875E-3,1.5090001E0,-2.454499E-1,1.4643877E0,3.0146044E-1,-8.3013874E-1,5.9438276E-1,-3.5380882E-1,-3.7421322E-1,1.7115287E-2,1.6518016E-3,-2.9989374E-1,1.5526204E-2,-1.410717E-1,4.320928E-1,1.2357557E0,-7.5391226E-2,2.4200895E-1,1.3404912E-2,-5.251889E-1,-2.0275179E-1,-2.0707154E-1,-7.0595425E-1,9.703143E-1,2.1604525E-1,-3.6829463E-1,-1.9412088E-1,8.692463E-1,-1.0556493E-2,2.65038E-1,5.085859E-2,1.0671249E-2,2.5421362E-3,-1.7701845E-4,1.1071719E-2,-2.8929833E-5,-3.3219513E-3,-1.5950591E-3,3.928297E-3,-3.4478006E-3,2.6519354E-3,-5.5264593E-3,-2.1840213E-3,-2.2925623E-3,4.413898E-3,8.131708E-3,-3.404101E-3,-3.0582488E-4,-1.2043346E-2,-3.0685666E-3,5.297051E-3,1.5931264E-2,2.8487549E-3,7.1959393E-3,9.2088216E-4,-9.376212E-3,8.91904E-4,-1.257388E-4,-7.594426E-3,-3.6661653E-4,1.3020026E-3,1.2587992E-3,6.5048556E-3,-1.5657349E-2,-3.8243541E-3,3.4974036E-3,-3.4465601E-3,3.331732E-4,8.227175E-3,6.4038076E-3,-5.2954385E-4,5.342927E-3,1.420146E-2],"split_indices":[247,206,74,211,177,258,16,133,328,106,203,162,45,0,0,163,216,19,107,0,0,57,0,12,275,287,165,246,268,155,70,0,0,89,199,0,0,136,0,239,126,0,49,305,174,70,141,199,221,0,0,232,0,33,169,66,156,61,0,185,2,167,31,83,262,20,321,143,0,231,14,0,0,0,0,0,0,0,0,0,0,0,0,0,0,0,0,0,0,0,0,0,0,0,0,0,0,0,0,0,0,0,0,0,0,0,0,0,0,0,0,0,0],"split_type":[0,0,0,0,0,0,0,0,0,0,0,0,0,0,0,0,0,0,0,0,0,0,0,0,0,0,0,0,0,0,0,0,0,0,0,0,0,0,0,0,0,0,0,0,0,0,0,0,0,0,0,0,0,0,0,0,0,0,0,0,0,0,0,0,0,0,0,0,0,0,0,0,0,0,0,0,0,0,0,0,0,0,0,0,0,0,0,0,0,0,0,0,0,0,0,0,0,0,0,0,0,0,0,0,0,0,0,0,0,0,0,0,0],"sum_hessian":[3.759E3,1.419E3,2.34E3,1.394E3,2.5E1,2.332E3,8E0,8.72E2,5.22E2,1.1E1,1.4E1,2.49E2,2.083E3,5E0,3E0,8.06E2,6.6E1,1E1,5.12E2,4E0,7E0,6E0,8E0,4.3E1,2.06E2,2.013E3,7E1,3.6E2,4.46E2,1.1E1,5.5E1,6E0,4E0,4.52E2,6E1,3E0,3E0,3.7E1,6E0,1.15E2,9.1E1,1.901E3,1.12E2,3.1E1,3.9E1,2.7E1,3.33E2,3.72E2,7.4E1,7E0,4E0,5.2E1,3E0,3.18E2,1.34E2,4.2E1,1.8E1,2.8E1,9E0,1.4E1,1.01E2,6.8E1,2.3E1,1.808E3,9.3E1,1E1,1.02E2,2.8E1,3E0,2.5E1,1.4E1,1.1E1,1.6E1,3.27E2,6E0,1.38E2,2.34E2,2.8E1,4.6E1,1.9E1,3.3E1,1.44E2,1.74E2,9.9E1,3.5E1,3E1,1.2E1,1.2E1,6E0,1.5E1,1.3E1,7E0,7E0,1.6E1,8.5E1,3E0,6.5E1,8E0,1.5E1,1.41E3,3.98E2,6.2E1,3.1E1,7E0,3E0,2.4E1,7.8E1,2.5E1,3E0,1.6E1,9E0,5E0,9E0],"tree_param":{"num_deleted":"0","num_feature":"330","num_nodes":"113","size_leaf_vector":"1"}},{"base_weights":[-4.7633285E-3,-1.1639688E-2,1.3418935E-1,2.5398564E-2,-3.644746E-2,3.4325233E-1,3.2024015E-2,5.009072E-2,-7.019176E-2,2.7147844E-1,-4.228702E-2,7.900322E-2,5.5548584E-1,-8.5189855E-3,1.1248249E-2,1.07512355E-1,-1.6816587E-3,-1.0318217E-1,3.4387925E-1,-1.2513237E-1,4.459235E-1,-2.6606008E-1,-3.5019446E-2,2.6699394E-1,-2.1870998E-1,1.13373354E-1,7.5129277E-1,2.5298646E-1,-1.04925536E-1,5.804505E-2,2.862824E-1,5.031913E-1,-1.6350305E-2,-7.6181404E-2,-5.6431663E-1,6.2836754E-1,-1.3686691E-1,2.0176598E-3,-4.839042E-3,6.180367E-1,7.431616E-2,-4.437785E-1,4.314925E-2,2.6715147E-1,-4.21314E-2,1.2425027E-1,9.563725E-3,-5.7027964E-3,-8.5537473E-4,-2.3114225E-3,5.7110013E-3,4.1974527E-3,8.816847E-1,1.1364699E-2,1.1914783E-1,2.1260098E-2,-3.580561E-1,3.228355E-2,4.0870953E-1,4.1955307E-1,2.9011058E-2,-1.891663E-1,8.9803785E-1,5.1862544E-1,-3.0375326E-2,-1.4702356E-1,7.4000046E-2,1.5622212E-2,-9.5267826E-1,1.095672E-3,1.2681997E-2,8.4634783E-4,-6.30631E-3,1.2227513E-2,3.4794034E-3,4.2365217E-3,-1.5045967E-3,5.8442373E-3,-5.145633E-1,9.224406E-3,-5.3509057E-2,7.4706626E-1,-4.645417E-3,-4.7434807E-2,2.6467738E-1,3.8362015E-3,-7.117987E-4,6.847534E-3,1.6224159E-2,2.6079404E-1,-1.1940087E-1,4.4154674E-1,-6.674254E-2,-7.835573E-2,-6.321596E-1,7.8770437E-4,-7.869016E-3,2.8437355E-3,1.36984065E-2,5.1837764E-3,1.4044511E-2,3.8971659E-3,-3.3141572E-3,-7.6188636E-3,2.2044107E-3,5.169944E-3,1.9388575E-2,2.9482574E-3,1.629262E-2,-3.4850624E-3,5.4844437E-5,-2.7799275E-4,-4.116237E-3,4.4802893E-3,-9.933708E-4,3.227951E-3,-2.780801E-3,-1.820219E-2,-7.7558756E-3,-3.8408686E-3,-1.2154852E-2,-3.8835737E-3,1.1212918E-3,1.6127255E-2,2.365686E-3,4.445777E-3,-3.5886804E-3,-1.1989097E-3,1.5068486E-4,1.4143548E-2,1.2606771E-3,1.2859238E-3,7.91269E-3,1.4074193E-3,-3.594098E-3,9.510934E-3,1.4105282E-3,-2.7790319E-3,7.692759E-3,1.0491058E-3,-4.095079E-3,-3.1631154E-3,-1.289374E-2],"categories":[],"categories_nodes":[],"categories_segments":[],"categories_sizes":[],"default_left":[0,0,0,0,0,0,0,0,0,0,0,0,0,0,0,0,0,0,0,0,0,0,0,0,0,0,0,0,0,0,0,0,0,0,0,0,0,0,0,0,0,0,0,0,0,0,0,0,0,0,0,0,0,0,0,0,0,0,0,0,0,0,0,0,0,0,0,0,0,0,0,0,0,0,0,0,0,0,0,0,0,0,0,0,0,0,0,0,0,0,0,0,0,0,0,0,0,0,0,0,0,0,0,0,0,0,0,0,0,0,0,0,0,0,0,0,0,0,0,0,0,0,0,0,0,0,0,0,0,0,0,0,0,0,0,0,0,0,0,0,0,0,0],"id":10,"left_children":[1,3,5,7,9,11,13,15,17,19,21,23,25,27,-1,29,31,33,35,37,39,41,43,45,47,49,51,53,55,57,59,61,63,65,67,69,71,-1,-1,73,75,77,79,81,83,85,-1,-1,-1,-1,-1,-1,87,-1,89,91,93,95,97,99,101,103,105,107,109,111,113,115,117,-1,-1,-1,-1,-1,-1,-1,-1,-1,119,-1,121,123,125,127,129,-1,-1,-1,-1,131,133,135,137,139,141,-1,-1,-1,-1,-1,-1,-1,-1,-1,-1,-1,-1,-1,-1,-1,-1,-1,-1,-1,-1,-1,-1,-1,-1,-1,-1,-1,-1,-1,-1,-1,-1,-1,-1,-1,-1,-1,-1,-1,-1,-1,-1,-1,-1,-1,-1,-1,-1],"loss_changes":[3.5865555E0,3.2866852E0,3.7695487E0,3.3905911E0,3.8631194E0,3.2089014E0,3.1959288E0,3.392208E0,4.0652914E0,2.823272E0,3.4107637E0,1.5695117E0,2.6850214E0,2.9005802E0,0E0,4.767594E0,4.459115E0,3.3685791E0,3.094869E0,5.880175E-1,1.7449079E0,3.6459928E0,4.39097E0,6.983757E-1,2.1966237E-1,7.0996803E-1,1.1927223E0,1.7504635E0,2.6906931E0,3.826103E0,3.9993763E0,4.8172545E0,4.405035E0,2.7770653E0,3.393272E0,1.1034765E0,4.4212806E-1,0E0,0E0,8.386531E-1,3.310077E-1,2.5654936E0,1.2887499E0,6.134119E0,3.2537997E0,2.5076398E-1,0E0,0E0,0E0,0E0,0E0,0E0,4.5264912E-1,0E0,8.758769E-1,2.1376908E0,2.097139E0,3.2591803E0,2.7747993E0,3.197609E0,2.0356946E0,6.9012386E-1,1.464963E0,2.2440505E0,3.519376E0,2.4040866E0,2.2793474E0,2.6971766E-1,1.6218472E-1,0E0,0E0,0E0,0E0,0E0,0E0,0E0,0E0,0E0,2.3192682E0,0E0,5.102195E-1,2.3046198E0,1.9002616E0,2.8711934E0,3.7607725E0,0E0,0E0,0E0,0E0,6.119255E-1,2.25065E-1,4.471184E-1,2.7395737E0,3.8374484E-1,8.068328E-1,0E0,0E0,0E0,0E0,0E0,0E0,0E0,0E0,0E0,0E0,0E0,0E0,0E0,0E0,0E0,0E0,0E0,0E0,0E0,0E0,0E0,0E0,0E0,0E0,0E0,0E0,0E0,0E0,0E0,0E0,0E0,0E0,0E0,0E0,0E0,0E0,0E0,0E0,0E0,0E0,0E0,0E0,0E0,0E0,0E0,0E0,0E0,0E0],"parents":[2147483647,0,0,1,1,2,2,3,3,4,4,5,5,6,6,7,7,8,8,9,9,10,10,11,11,12,12,13,13,15,15,16,16,17,17,18,18,19,19,20,20,21,21,22,22,23,23,24,24,25,25,26,26,27,27,28,28,29,29,30,30,31,31,32,32,33,33,34,34,35,35,36,36,39,39,40,40,41,41,42,42,43,43,44,44,45,45,52,52,54,54,55,55,56,56,57,57,58,58,59,59,60,60,61,61,62,62,63,63,64,64,65,65,66,66,67,67,68,68,78,78,80,80,81,81,82,82,83,83,84,84,89,89,90,90,91,91,92,92,93,93,94,94],"right_children":[2,4,6,8,10,12,14,16,18,20,22,24,26,28,-1,30,32,34,36,38,40,42,44,46,48,50,52,54,56,58,60,62,64,66,68,70,72,-1,-1,74,76,78,80,82,84,86,-1,-1,-1,-1,-1,-1,88,-1,90,92,94,96,98,100,102,104,106,108,110,112,114,116,118,-1,-1,-1,-1,-1,-1,-1,-1,-1,120,-1,122,124,126,128,130,-1,-1,-1,-1,132,134,136,138,140,142,-1,-1,-1,-1,-1,-1,-1,-1,-1,-1,-1,-1,-1,-1,-1,-1,-1,-1,-1,-1,-1,-1,-1,-1,-1,-1,-1,-1,-1,-1,-1,-1,-1,-1,-1,-1,-1,-1,-1,-1,-1,-1,-1,-1,-1,-1,-1,-1],"split_conditions":[1.9115002E0,-2.2663498E-1,-1.0943428E0,6.651063E-2,-2.160768E0,-1.1398352E-1,1.3931632E0,-4.5800615E-2,1.6142272E0,-1.988752E-1,-1.7793318E0,7.711365E-2,-1.330649E-1,-1.9144273E-1,1.1248249E-2,1.1662413E-1,-1.0930216E0,1.4773753E0,9.447193E-1,-1.3218811E-1,-1.480795E0,1.0113881E-1,-1.8782642E0,-1.0516735E0,-1.1596194E-1,-9.081624E-2,-8.6756134E-1,-1.3398898E0,-1.01135895E-1,2.6274568E-1,-2.2291917E-2,-1.3482314E0,-1.8787894E0,7.5854115E-2,-3.575598E-1,-9.9627554E-1,3.136639E-1,2.0176598E-3,-4.839042E-3,-1.8506806E-1,-3.8626787E-1,-1.4038715E0,-1.023521E0,-1.9845699E-1,3.6285748E0,-1.6999927E-1,9.563725E-3,-5.7027964E-3,-8.5537473E-4,-2.3114225E-3,5.7110013E-3,4.1974527E-3,-1.5874901E0,1.1364699E-2,-3.2777783E-1,-3.2104713E-1,-1.5509202E-1,1.5808614E0,5.3835146E-2,4.433288E-1,-1.7828263E-1,-3.2284507E-1,-1.790669E-1,-6.05058E-1,-7.364127E-1,-1.152585E-1,1.0173701E-1,-6.597233E-1,-3.3277214E-1,1.095672E-3,1.2681997E-2,8.4634783E-4,-6.30631E-3,1.2227513E-2,3.4794034E-3,4.2365217E-3,-1.5045967E-3,5.8442373E-3,-2.2428866E-2,9.224406E-3,-6.084559E-1,-2.5893146E-1,-1.3576943E-1,8.311486E-2,-8.402975E-1,3.8362015E-3,-7.117987E-4,6.847534E-3,1.6224159E-2,-8.200402E-1,-2.0482774E-1,6.7307755E-2,2.2022486E0,-2.6524654E-2,-3.564368E-1,7.8770437E-4,-7.869016E-3,2.8437355E-3,1.36984065E-2,5.1837764E-3,1.4044511E-2,3.8971659E-3,-3.3141572E-3,-7.6188636E-3,2.2044107E-3,5.169944E-3,1.9388575E-2,2.9482574E-3,1.629262E-2,-3.4850624E-3,5.4844437E-5,-2.7799275E-4,-4.116237E-3,4.4802893E-3,-9.933708E-4,3.227951E-3,-2.780801E-3,-1.820219E-2,-7.7558756E-3,-3.8408686E-3,-1.2154852E-2,-3.8835737E-3,1.1212918E-3,1.6127255E-2,2.365686E-3,4.445777E-3,-3.5886804E-3,-1.1989097E-3,1.5068486E-4,1.4143548E-2,1.2606771E-3,1.2859238E-3,7.91269E-3,1.4074193E-3,-3.594098E-3,9.510934E-3,1.4105282E-3,-2.7790319E-3,7.692759E-3,1.0491058E-3,-4.095079E-3,-3.1631154E-3,-1.289374E-2],"split_indices":[45,154,15,34,38,5,72,93,267,222,253,322,247,13,0,53,120,88,223,52,49,95,52,85,170,38,99,26,145,203,23,10,118,192,122,97,66,0,0,78,45,319,113,266,133,5,0,0,0,0,0,0,28,0,320,56,178,235,8,267,167,1,145,169,118,236,225,16,66,0,0,0,0,0,0,0,0,0,26,0,174,254,236,258,19,0,0,0,0,158,79,20,311,46,254,0,0,0,0,0,0,0,0,0,0,0,0,0,0,0,0,0,0,0,0,0,0,0,0,0,0,0,0,0,0,0,0,0,0,0,0,0,0,0,0,0,0,0,0,0,0,0,0],"split_type":[0,0,0,0,0,0,0,0,0,0,0,0,0,0,0,0,0,0,0,0,0,0,0,0,0,0,0,0,0,0,0,0,0,0,0,0,0,0,0,0,0,0,0,0,0,0,0,0,0,0,0,0,0,0,0,0,0,0,0,0,0,0,0,0,0,0,0,0,0,0,0,0,0,0,0,0,0,0,0,0,0,0,0,0,0,0,0,0,0,0,0,0,0,0,0,0,0,0,0,0,0,0,0,0,0,0,0,0,0,0,0,0,0,0,0,0,0,0,0,0,0,0,0,0,0,0,0,0,0,0,0,0,0,0,0,0,0,0,0,0,0,0,0],"sum_hessian":[3.751E3,3.575E3,1.76E2,1.434E3,2.141E3,5.7E1,1.19E2,1.14E3,2.94E2,3.9E1,2.102E3,2.6E1,3.1E1,1.13E2,6E0,5.4E2,6E2,2.73E2,2.1E1,1.2E1,2.7E1,6.5E1,2.037E3,1.6E1,1E1,1E1,2.1E1,3E1,8.3E1,4.24E2,1.16E2,1.6E1,5.84E2,2.59E2,1.4E1,1.3E1,8E0,5E0,7E0,1.8E1,9E0,4.1E1,2.4E1,4.6E1,1.991E3,1.2E1,4E0,5E0,5E0,5E0,5E0,5E0,1.6E1,6E0,2.4E1,5.6E1,2.7E1,3.96E2,2.8E1,7.6E1,4E1,6E0,1E1,1.4E1,5.7E2,1.76E2,8.3E1,6E0,8E0,3E0,1E1,5E0,3E0,1.3E1,5E0,4E0,5E0,3E0,3.8E1,3E0,2.1E1,1.6E1,3E1,1.958E3,3.3E1,7E0,5E0,4E0,1.2E1,1.5E1,9E0,9E0,4.7E1,1.4E1,1.3E1,3.85E2,1.1E1,1.9E1,9E0,6.3E1,1.3E1,2.1E1,1.9E1,3E0,3E0,4E0,6E0,9E0,5E0,8.8E1,4.82E2,7.9E1,9.7E1,3.3E1,5E1,3E0,3E0,5E0,3E0,1.8E1,2E1,8E0,1.3E1,1.1E1,5E0,1.3E1,1.7E1,1.344E3,6.14E2,7E0,2.6E1,9E0,6E0,3E0,6E0,6E0,3E0,4E1,7E0,8E0,6E0,4E0,9E0],"tree_param":{"num_deleted":"0","num_feature":"330","num_nodes":"143","size_leaf_vector":"1"}},{"base_weights":[1.2916162E-3,-3.823191E-3,2.0625903E-1,-1.1783712E-2,1.09547794E-1,4.0369785E-1,3.961807E-2,-6.028832E-2,8.267305E-3,3.6480287E-1,6.3169226E-2,2.6366663E-1,1.0661871E0,3.955043E-1,-1.05730884E-1,-1.7619415E-1,-2.1214984E-2,-4.1999746E-2,3.641671E-2,1.0475145E-1,7.392282E-1,-6.857357E-2,1.7435133E-1,8.468411E-2,4.8210204E-1,2.1564115E-2,8.9530535E-3,3.557646E-3,1.1579588E-2,-1.6408052E-1,6.8150456E-3,-9.6843064E-2,-4.152293E-1,-2.6121822E-3,-2.8919387E-1,-2.696477E-1,-2.402746E-2,1.3324659E-2,1.4854054E-1,-1.8252364E-1,4.9646142E-1,1.4389697E-2,2.1710095E-3,1.5902987E-1,-1.7099068E-1,5.0567478E-2,4.4523105E-1,-3.0786484E-3,2.0639813E-1,1.1097073E-2,2.1703122E-3,1.0883304E-1,-2.666827E-1,-2.1505044E-1,-2.9127763E-3,-2.686594E-1,-8.289872E-1,8.7328404E-2,-4.2092986E-2,-6.6967833E-1,-1.0163666E-1,-1.1467792E-1,-5.602864E-1,1.0950589E-1,-5.3910833E-2,-2.6212284E-1,2.6652766E-2,3.0871812E-1,4.7650665E-2,-4.9777697E-3,1.5966248E-3,1.3309586E-3,1.0839511E-2,2.858842E-1,-2.8847672E-2,7.410059E-2,-3.038093E-1,1.8523055E-1,-1.9651768E-1,-4.5310117E-2,5.6948453E-1,5.0508394E-3,2.1468168E-5,-2.6347025E-3,5.1623443E-3,1.9064227E-3,-3.242411E-1,-9.775442E-3,-2.0366565E-3,3.1334357E-3,-1.369028E-3,-8.724759E-3,-9.892578E-4,-1.6215688E-2,-4.4704364E-3,1.739821E-3,-6.8879407E-3,-3.5921363E-3,-1.4105687E-4,-1.512142E-2,-3.4337398E-3,-4.0523624E-3,2.510153E-3,-3.7941497E-3,3.3966426E-3,-6.983903E-4,-1.22948885E-2,3.7265215E-3,-2.6237015E-3,3.105336E-3,-1.4014925E-3,-2.1759674E-3,-1.0475985E-2,5.027167E-4,-1.3372888E-2,2.755389E-3,9.066789E-3,5.3742086E-3,-2.8151853E-4,6.7961463E-3,1.1760168E-3,3.1942811E-3,-2.4561295E-3,3.1462717E-3,-6.7675975E-3,2.4043391E-3,-6.229722E-3,1.1665794E-3,7.0320475E-3,7.2552316E-4,-5.806128E-3,-3.9293654E-3,1.9577567E-3,2.6163505E-3,1.102221E-2,-2.7215015E-3,-6.3266093E-3],"categories":[],"categories_nodes":[],"categories_segments":[],"categories_sizes":[],"default_left":[0,0,0,0,0,0,0,0,0,0,0,0,0,0,0,0,0,0,0,0,0,0,0,0,0,0,0,0,0,0,0,0,0,0,0,0,0,0,0,0,0,0,0,0,0,0,0,0,0,0,0,0,0,0,0,0,0,0,0,0,0,0,0,0,0,0,0,0,0,0,0,0,0,0,0,0,0,0,0,0,0,0,0,0,0,0,0,0,0,0,0,0,0,0,0,0,0,0,0,0,0,0,0,0,0,0,0,0,0,0,0,0,0,0,0,0,0,0,0,0,0,0,0,0,0,0,0,0,0,0,0,0,0,0,0,0,0],"id":11,"left_children":[1,3,5,7,9,11,13,15,17,19,21,23,25,27,29,31,33,35,37,39,41,43,45,47,49,-1,-1,-1,-1,51,-1,53,55,57,59,61,63,65,67,69,71,-1,-1,73,75,77,79,-1,81,-1,-1,83,85,87,89,91,93,95,97,99,101,103,105,107,109,111,113,115,117,-1,-1,-1,-1,119,121,123,125,127,129,131,133,-1,-1,-1,-1,-1,135,-1,-1,-1,-1,-1,-1,-1,-1,-1,-1,-1,-1,-1,-1,-1,-1,-1,-1,-1,-1,-1,-1,-1,-1,-1,-1,-1,-1,-1,-1,-1,-1,-1,-1,-1,-1,-1,-1,-1,-1,-1,-1,-1,-1,-1,-1,-1,-1,-1,-1],"loss_changes":[3.9615257E0,3.3287792E0,3.0109346E0,3.3519633E0,2.84184E0,3.6151867E0,2.6799293E0,4.5613194E0,3.4526842E0,3.5252476E0,3.0293288E0,1.3666341E0,1.9435549E-1,6.802592E-1,1.1962062E0,4.777583E0,3.763039E0,3.577547E0,4.0474815E0,2.6787717E0,1.1619635E0,2.241689E0,3.7329056E0,7.364155E-1,1.0078168E0,0E0,0E0,0E0,0E0,9.8107594E-1,0E0,2.1311984E0,3.5978851E0,2.5141811E0,3.4287038E0,2.8183212E0,3.2501206E0,4.772196E0,4.3000875E0,5.074794E-1,6.3623047E-1,0E0,0E0,7.2323966E-1,2.1709895E0,2.6317143E0,2.1591048E0,0E0,3.1464148E-1,0E0,0E0,6.0902053E-1,5.892631E-1,2.8698363E0,1.7130384E0,2.6134813E0,1.1732473E0,2.1364212E0,2.9214432E0,1.6805291E0,1.3054724E0,1.6740375E0,2.147655E0,4.7957335E0,5.167549E0,2.8453598E0,4.2966638E0,3.4549627E0,3.0122674E0,0E0,0E0,0E0,0E0,4.69432E-1,3.828453E-1,1.4643348E0,1.5501304E0,1.3909038E0,1.0845572E0,2.8607938E-1,1.0894947E0,0E0,0E0,0E0,0E0,0E0,1.5291929E-1,0E0,0E0,0E0,0E0,0E0,0E0,0E0,0E0,0E0,0E0,0E0,0E0,0E0,0E0,0E0,0E0,0E0,0E0,0E0,0E0,0E0,0E0,0E0,0E0,0E0,0E0,0E0,0E0,0E0,0E0,0E0,0E0,0E0,0E0,0E0,0E0,0E0,0E0,0E0,0E0,0E0,0E0,0E0,0E0,0E0,0E0,0E0,0E0,0E0,0E0],"parents":[2147483647,0,0,1,1,2,2,3,3,4,4,5,5,6,6,7,7,8,8,9,9,10,10,11,11,12,12,13,13,14,14,15,15,16,16,17,17,18,18,19,19,20,20,21,21,22,22,23,23,24,24,29,29,31,31,32,32,33,33,34,34,35,35,36,36,37,37,38,38,39,39,40,40,43,43,44,44,45,45,46,46,48,48,51,51,52,52,53,53,54,54,55,55,56,56,57,57,58,58,59,59,60,60,61,61,62,62,63,63,64,64,65,65,66,66,67,67,68,68,73,73,74,74,75,75,76,76,77,77,78,78,79,79,80,80,86,86],"right_children":[2,4,6,8,10,12,14,16,18,20,22,24,26,28,30,32,34,36,38,40,42,44,46,48,50,-1,-1,-1,-1,52,-1,54,56,58,60,62,64,66,68,70,72,-1,-1,74,76,78,80,-1,82,-1,-1,84,86,88,90,92,94,96,98,100,102,104,106,108,110,112,114,116,118,-1,-1,-1,-1,120,122,124,126,128,130,132,134,-1,-1,-1,-1,-1,136,-1,-1,-1,-1,-1,-1,-1,-1,-1,-1,-1,-1,-1,-1,-1,-1,-1,-1,-1,-1,-1,-1,-1,-1,-1,-1,-1,-1,-1,-1,-1,-1,-1,-1,-1,-1,-1,-1,-1,-1,-1,-1,-1,-1,-1,-1,-1,-1,-1,-1],"split_conditions":[2.813883E0,1.5088997E0,-1.555782E-1,-3.6880958E-1,-1.1173476E0,-5.25455E-2,-3.5181707E-1,-7.8029406E-1,-1.0833585E-1,8.627482E-1,-8.396845E-2,-9.221163E-2,5.085859E-2,-1.1932847E-1,2.296275E0,4.5685032E-1,6.090319E-1,-1.2426577E0,8.6179817E-1,-1.0402756E-1,3.723651E-1,-3.458353E-1,3.4533972E-1,-1.1297668E0,2.0718864E-1,2.1564115E-2,8.9530535E-3,3.557646E-3,1.1579588E-2,3.1924312E0,6.8150456E-3,-1.8154567E-1,9.04135E-1,-1.6294193E-1,-5.4352945E-1,-1.3271862E-1,-1.1049377E0,-2.0705312E-1,-4.5367476E-2,2.4320138E-1,-1.05779216E-1,1.4389697E-2,2.1710095E-3,-1.7192227E-1,-3.177211E-1,2.1639948E-1,-4.7988963E-1,-3.0786484E-3,-1.665085E-1,1.1097073E-2,2.1703122E-3,1.3786626E0,-1.282503E0,-5.5142367E-1,-7.234214E-1,-1.7413408E-2,1.0168337E-1,1.5248855E0,-9.975303E-1,2.4645734E-1,3.0284938E-1,-8.830478E-2,-3.565347E-1,7.276108E-1,-9.476117E-1,6.563401E-3,2.440551E0,-1.218784E-1,-6.883757E-1,-4.9777697E-3,1.5966248E-3,1.3309586E-3,1.0839511E-2,-9.751087E-2,-2.2620314E-1,1.2583865E-1,-1.4570106E0,1.350031E-1,-5.3250855E-1,-1.1474028E-2,-6.843473E-1,5.0508394E-3,2.1468168E-5,-2.6347025E-3,5.1623443E-3,1.9064227E-3,1.8972039E-1,-9.775442E-3,-2.0366565E-3,3.1334357E-3,-1.369028E-3,-8.724759E-3,-9.892578E-4,-1.6215688E-2,-4.4704364E-3,1.739821E-3,-6.8879407E-3,-3.5921363E-3,-1.4105687E-4,-1.512142E-2,-3.4337398E-3,-4.0523624E-3,2.510153E-3,-3.7941497E-3,3.3966426E-3,-6.983903E-4,-1.22948885E-2,3.7265215E-3,-2.6237015E-3,3.105336E-3,-1.4014925E-3,-2.1759674E-3,-1.0475985E-2,5.027167E-4,-1.3372888E-2,2.755389E-3,9.066789E-3,5.3742086E-3,-2.8151853E-4,6.7961463E-3,1.1760168E-3,3.1942811E-3,-2.4561295E-3,3.1462717E-3,-6.7675975E-3,2.4043391E-3,-6.229722E-3,1.1665794E-3,7.0320475E-3,7.2552316E-4,-5.806128E-3,-3.9293654E-3,1.9577567E-3,2.6163505E-3,1.102221E-2,-2.7215015E-3,-6.3266093E-3],"split_indices":[20,45,162,155,142,101,243,281,247,246,291,99,14,267,12,195,211,33,52,38,132,199,91,158,0,0,0,0,0,20,0,284,129,291,169,211,84,277,148,184,159,0,0,189,12,168,275,0,299,0,0,17,282,6,29,247,203,246,51,286,119,188,144,17,295,210,110,200,119,0,0,0,0,321,209,78,193,78,149,111,66,0,0,0,0,0,209,0,0,0,0,0,0,0,0,0,0,0,0,0,0,0,0,0,0,0,0,0,0,0,0,0,0,0,0,0,0,0,0,0,0,0,0,0,0,0,0,0,0,0,0,0,0,0,0,0,0],"split_type":[0,0,0,0,0,0,0,0,0,0,0,0,0,0,0,0,0,0,0,0,0,0,0,0,0,0,0,0,0,0,0,0,0,0,0,0,0,0,0,0,0,0,0,0,0,0,0,0,0,0,0,0,0,0,0,0,0,0,0,0,0,0,0,0,0,0,0,0,0,0,0,0,0,0,0,0,0,0,0,0,0,0,0,0,0,0,0,0,0,0,0,0,0,0,0,0,0,0,0,0,0,0,0,0,0,0,0,0,0,0,0,0,0,0,0,0,0,0,0,0,0,0,0,0,0,0,0,0,0,0,0,0,0,0,0,0,0],"sum_hessian":[3.777E3,3.686E3,9.1E1,3.445E3,2.41E2,4.1E1,5E1,1.007E3,2.438E3,3.6E1,2.05E2,3.5E1,6E0,1.4E1,3.6E1,2.53E2,7.54E2,8.75E2,1.563E3,2.2E1,1.4E1,9.4E1,1.11E2,2E1,1.5E1,3E0,3E0,1E1,4E0,3.3E1,3E0,1.91E2,6.2E1,7.06E2,4.8E1,6.3E1,8.12E2,1.297E3,2.66E2,1.3E1,9E0,1.1E1,3E0,2.9E1,6.5E1,7.7E1,3.4E1,6E0,1.4E1,9E0,6E0,9E0,2.4E1,8.4E1,1.07E2,4.7E1,1.5E1,2.15E2,4.91E2,1.5E1,3.3E1,4.2E1,2.1E1,1.48E2,6.64E2,5.9E1,1.238E3,1.02E2,1.64E2,9E0,4E0,3E0,6E0,1.7E1,1.2E1,2.3E1,4.2E1,5E1,2.7E1,7E0,2.7E1,9E0,5E0,4E0,5E0,3E0,2.1E1,1.5E1,6.9E1,3.1E1,7.6E1,2E1,2.7E1,1.1E1,4E0,2.08E2,7E0,7.7E1,4.14E2,9E0,6E0,2.1E1,1.2E1,3.1E1,1.1E1,6E0,1.5E1,1.03E2,4.5E1,7.6E1,5.88E2,4.5E1,1.4E1,1.233E3,5E0,6.6E1,3.6E1,3E1,1.34E2,1E1,7E0,4E0,8E0,1.9E1,4E0,6E0,3.6E1,3.5E1,1.5E1,1.1E1,1.6E1,3E0,4E0,6E0,2.1E1,7E0,1.4E1],"tree_param":{"num_deleted":"0","num_feature":"330","num_nodes":"137","size_leaf_vector":"1"}},{"base_weights":[1.145715E-3,-6.8539366E-2,1.1523996E-2,-1.0811303E-1,1.2128943E-1,1.43235335E-2,-3.0377316E-1,-8.975692E-2,-6.561279E-1,-9.827554E-2,2.7695042E-1,2.1873921E-2,-1.0262729E-1,2.1812226E-1,-4.7974545E-1,-1.23845674E-1,1.5278319E-1,-9.8578465E-1,-1.7538506E-3,1.7909678E-2,-1.1157731E-2,4.9293864E-1,8.964045E-2,2.3603812E-2,-5.681426E-1,-1.8023E-1,1.3702647E-1,-3.2396085E-4,5.967283E-3,-7.0912087E-1,-6.963414E-2,1.912945E-2,-1.9603804E-1,7.315535E-2,6.200994E-1,-1.9260043E-2,-8.171609E-3,2.4848117E-1,-1.6241868E-1,1.07325815E-1,6.9144374E-1,3.6093187E-1,-8.112878E-2,4.7098942E-2,-1.3654827E-2,-1.4542486E-2,-4.2436784E-3,-1.2799434E-1,-5.8136827E-1,-9.666332E-2,4.054003E-1,-1.4225839E-2,-4.0234616E-3,-4.547177E-3,1.3230646E-3,-6.003792E-2,3.452934E-1,-3.6369947E-1,-1.1888293E-1,2.3090522E-1,-1.1980227E-1,4.685542E-3,1.3063383E-2,3.9249238E-1,-1.4637111E-4,-2.5115833E-2,-8.413163E-3,-8.697151E-4,4.029441E-3,1.3975922E-2,6.264828E-3,1.5420283E-3,9.280766E-3,-2.0114595E-1,2.2277422E-3,2.4725644E-1,3.7807155E-2,1.10788435E-1,-3.923923E-2,-2.0778704E-1,9.499097E-2,-1.28397085E-2,-2.9160264E-3,8.426894E-2,-4.6789107E-1,5.2855E-1,-5.1710015E-4,-1.3138335E-4,-6.8542482E-3,1.1908391E-2,-8.449069E-5,-3.120873E-3,-1.0033841E-2,1.3559222E-3,-2.95647E-3,-1.1761575E-3,5.885224E-3,-5.5550425E-3,1.4873731E-3,2.0615456E-3,8.254947E-3,1.2937393E-3,-2.8991199E-3,-4.5661186E-3,4.040376E-4,9.032266E-3,1.610314E-3,-3.707841E-3,7.29323E-4,1.3001789E-3,1.40620805E-2,-7.5872685E-3,-4.9687724E-4,-1.3783613E-3,-6.895539E-3,1.0937192E-2,3.6917804E-4,6.943344E-3,-9.9118006E-5,-2.6448045E-3,-9.71592E-3,6.0902373E-3,1.2739117E-2],"categories":[],"categories_nodes":[],"categories_segments":[],"categories_sizes":[],"default_left":[0,0,0,0,0,0,0,0,0,0,0,0,0,0,0,0,0,0,0,0,0,0,0,0,0,0,0,0,0,0,0,0,0,0,0,0,0,0,0,0,0,0,0,0,0,0,0,0,0,0,0,0,0,0,0,0,0,0,0,0,0,0,0,0,0,0,0,0,0,0,0,0,0,0,0,0,0,0,0,0,0,0,0,0,0,0,0,0,0,0,0,0,0,0,0,0,0,0,0,0,0,0,0,0,0,0,0,0,0,0,0,0,0,0,0,0,0,0,0,0,0,0,0],"id":12,"left_children":[1,3,5,7,9,11,13,15,17,19,21,23,25,27,29,31,33,35,-1,37,-1,39,41,43,45,47,49,-1,-1,51,53,55,57,59,61,-1,-1,63,65,67,69,71,73,75,77,-1,-1,79,81,83,85,-1,-1,-1,-1,87,89,91,93,95,97,-1,-1,99,-1,101,-1,-1,-1,-1,-1,-1,-1,103,-1,105,107,109,111,113,115,-1,-1,117,119,121,-1,-1,-1,-1,-1,-1,-1,-1,-1,-1,-1,-1,-1,-1,-1,-1,-1,-1,-1,-1,-1,-1,-1,-1,-1,-1,-1,-1,-1,-1,-1,-1,-1,-1,-1,-1,-1],"loss_changes":[2.7338054E0,3.694101E0,2.9083896E0,4.025233E0,2.9323215E0,2.8826694E0,2.7679777E0,3.27647E0,2.2466125E0,2.4545236E0,1.9786499E0,3.1417453E0,3.7070572E0,2.864964E-1,2.0201497E0,3.5750618E0,1.7779939E0,1.5757227E-1,0E0,1.329294E0,0E0,1.6863513E0,1.3264725E0,2.6767302E0,6.610601E-1,3.068647E0,3.112282E0,0E0,0E0,8.2765865E-1,3.0479202E-1,3.041851E0,2.9320278E0,1.3365418E0,1.8828773E-1,0E0,0E0,5.225324E-1,8.5694337E-1,2.1393709E-1,4.2698574E-1,5.5219257E-1,4.9690455E-1,3.4778152E0,3.7707906E0,0E0,0E0,2.4039462E0,1.2555628E0,1.85294E0,1.2545335E0,0E0,0E0,0E0,0E0,1.770429E0,3.0892532E0,2.9921007E0,2.0002103E0,9.6280324E-1,9.574472E-1,0E0,0E0,2.0548618E-1,0E0,2.3599102E-1,0E0,0E0,0E0,0E0,0E0,0E0,0E0,2.1836618E-1,0E0,3.712275E0,3.2274034E0,4.666365E0,3.6805801E0,2.5788836E0,1.4806278E0,0E0,0E0,5.8652544E-1,2.515521E-1,4.1374874E-1,0E0,0E0,0E0,0E0,0E0,0E0,0E0,0E0,0E0,0E0,0E0,0E0,0E0,0E0,0E0,0E0,0E0,0E0,0E0,0E0,0E0,0E0,0E0,0E0,0E0,0E0,0E0,0E0,0E0,0E0,0E0,0E0,0E0,0E0,0E0,0E0,0E0],"parents":[2147483647,0,0,1,1,2,2,3,3,4,4,5,5,6,6,7,7,8,8,9,9,10,10,11,11,12,12,13,13,14,14,15,15,16,16,17,17,19,19,21,21,22,22,23,23,24,24,25,25,26,26,29,29,30,30,31,31,32,32,33,33,34,34,37,37,38,38,39,39,40,40,41,41,42,42,43,43,44,44,47,47,48,48,49,49,50,50,55,55,56,56,57,57,58,58,59,59,60,60,63,63,65,65,73,73,75,75,76,76,77,77,78,78,79,79,80,80,83,83,84,84,85,85],"right_children":[2,4,6,8,10,12,14,16,18,20,22,24,26,28,30,32,34,36,-1,38,-1,40,42,44,46,48,50,-1,-1,52,54,56,58,60,62,-1,-1,64,66,68,70,72,74,76,78,-1,-1,80,82,84,86,-1,-1,-1,-1,88,90,92,94,96,98,-1,-1,100,-1,102,-1,-1,-1,-1,-1,-1,-1,104,-1,106,108,110,112,114,116,-1,-1,118,120,122,-1,-1,-1,-1,-1,-1,-1,-1,-1,-1,-1,-1,-1,-1,-1,-1,-1,-1,-1,-1,-1,-1,-1,-1,-1,-1,-1,-1,-1,-1,-1,-1,-1,-1,-1,-1,-1],"split_conditions":[-2.0535783E-1,7.081889E-1,2.0579576E0,1.7124288E0,7.306421E-2,1.7047466E0,-1.9762166E-1,8.6541116E-1,8.401858E-1,5.632882E-2,-5.5031806E-1,2.736681E0,7.2459465E-1,-3.483144E-1,5.76366E-1,-3.721941E-1,-1.1157792E-2,-5.990425E-1,-1.7538506E-3,-1.9401167E-1,-1.1157731E-2,4.267615E-2,-1.9900273E-1,-3.4971628E-3,-1.588481E-1,1.1595572E0,-2.8327787E-1,-3.2396085E-4,5.967283E-3,9.1294473E-1,-6.832236E-1,1.7933033E-2,-1.4464948E-1,-5.815938E-1,-8.262048E-1,-1.9260043E-2,-8.171609E-3,-1.1155549E-1,-1.4667693E-1,-1.0123525E0,6.370437E-1,2.0896901E-1,9.00831E-1,-1.6185799E0,-7.327608E-1,-1.4542486E-2,-4.2436784E-3,8.598968E-2,2.384071E-2,6.7762226E-1,4.813653E-1,-1.4225839E-2,-4.0234616E-3,-4.547177E-3,1.3230646E-3,7.573018E-1,-1.7492221E-1,-3.260478E-1,-7.564368E-1,-3.8545525E-1,-1.3127743E-1,4.685542E-3,1.3063383E-2,-4.7454545E-1,-1.4637111E-4,5.070668E-3,-8.413163E-3,-8.697151E-4,4.029441E-3,1.3975922E-2,6.264828E-3,1.5420283E-3,9.280766E-3,-2.0411661E-1,2.2277422E-3,-1.0611835E0,-3.8750535E-1,1.6599628E0,-3.8706255E-1,-2.4919065E-2,-2.3973252E-1,-1.28397085E-2,-2.9160264E-3,-3.6605954E-1,-1.645252E-1,1.4886774E0,-5.1710015E-4,-1.3138335E-4,-6.8542482E-3,1.1908391E-2,-8.449069E-5,-3.120873E-3,-1.0033841E-2,1.3559222E-3,-2.95647E-3,-1.1761575E-3,5.885224E-3,-5.5550425E-3,1.4873731E-3,2.0615456E-3,8.254947E-3,1.2937393E-3,-2.8991199E-3,-4.5661186E-3,4.040376E-4,9.032266E-3,1.610314E-3,-3.707841E-3,7.29323E-4,1.3001789E-3,1.40620805E-2,-7.5872685E-3,-4.9687724E-4,-1.3783613E-3,-6.895539E-3,1.0937192E-2,3.6917804E-4,6.943344E-3,-9.9118006E-5,-2.6448045E-3,-9.71592E-3,6.0902373E-3,1.2739117E-2],"split_indices":[167,250,299,118,103,86,255,124,85,144,15,74,239,1,171,298,45,10,0,191,0,99,57,212,5,202,216,0,0,231,42,310,27,207,44,0,0,3,79,26,237,319,44,37,322,0,0,269,310,209,0,0,0,0,0,83,255,111,18,78,79,0,0,53,0,211,0,0,0,0,0,0,0,177,0,246,232,0,298,60,49,0,0,243,38,117,0,0,0,0,0,0,0,0,0,0,0,0,0,0,0,0,0,0,0,0,0,0,0,0,0,0,0,0,0,0,0,0,0,0,0,0,0],"split_type":[0,0,0,0,0,0,0,0,0,0,0,0,0,0,0,0,0,0,0,0,0,0,0,0,0,0,0,0,0,0,0,0,0,0,0,0,0,0,0,0,0,0,0,0,0,0,0,0,0,0,0,0,0,0,0,0,0,0,0,0,0,0,0,0,0,0,0,0,0,0,0,0,0,0,0,0,0,0,0,0,0,0,0,0,0,0,0,0,0,0,0,0,0,0,0,0,0,0,0,0,0,0,0,0,0,0,0,0,0,0,0,0,0,0,0,0,0,0,0,0,0,0,0],"sum_hessian":[3.778E3,4.89E2,3.289E3,4.05E2,8.4E1,3.261E3,2.8E1,3.93E2,1.2E1,3.5E1,4.9E1,3.064E3,1.97E2,7E0,2.1E1,3.45E2,4.8E1,7E0,5E0,3E1,5E0,2.2E1,2.7E1,3.056E3,8E0,1.49E2,4.8E1,3E0,4E0,1.3E1,8E0,1.16E2,2.29E2,4.2E1,6E0,4E0,3E0,1.3E1,1.7E1,8E0,1.4E1,1E1,1.7E1,1.874E3,1.182E3,3E0,5E0,1.33E2,1.6E1,2.6E1,2.2E1,9E0,4E0,3E0,5E0,9.4E1,2.2E1,7.1E1,1.58E2,2.3E1,1.9E1,3E0,3E0,8E0,5E0,1.3E1,4E0,4E0,4E0,8E0,6E0,5E0,5E0,1.1E1,6E0,8.2E1,1.792E3,2.01E2,9.81E2,9.8E1,3.5E1,1E1,6E0,1.8E1,8E0,1.7E1,5E0,8.3E1,1.1E1,1E1,1.2E1,4.3E1,2.8E1,3.7E1,1.21E2,7E0,1.6E1,9E0,1E1,3E0,5E0,8E0,5E0,8E0,3E0,2.6E1,5.6E1,4.4E1,1.748E3,1.94E2,7E0,1.9E1,9.62E2,6.3E1,3.5E1,3E0,3.2E1,3E0,1.5E1,3E0,5E0,1.2E1,5E0],"tree_param":{"num_deleted":"0","num_feature":"330","num_nodes":"123","size_leaf_vector":"1"}},{"base_weights":[-3.629085E-3,-1.7277047E-2,6.892188E-2,-4.9470678E-2,1.9474521E-2,7.567816E-2,-1.5536854E-2,-2.2190787E-2,-1.4150049E-1,1.8820782E-1,3.3605648E-3,-1.2592019E-1,1.0333985E-1,1.530261E-2,-2.5118532E-2,-2.2584525E-1,-7.2924444E-3,5.2147474E-2,4.1672325E-1,-2.4834734E-1,1.4428458E-2,-2.6542062E-1,7.822776E-2,1.5146597E-1,-5.5692215E-2,-5.572508E-1,-1.9732311E-2,-1.2812755E-1,-4.5250738E-1,1.9568543E-1,-1.4478531E-1,2.5359E-1,-1.1911837E-1,3.124511E-1,8.9902765E-1,-1.5963203E-1,-7.0375884E-1,-7.121746E-2,4.911659E-2,-3.2730857E-1,4.4224444E-3,-6.668892E-2,4.2377654E-1,8.0304265E-2,2.7387935E-1,-1.1554374E-2,-2.184466E-2,-1.3143692E-2,-2.2227303E-3,-1.3901216E-2,-4.3070015E-1,-6.739931E-1,-9.642366E-2,-7.091843E-1,-9.843443E-2,7.442735E-1,9.883679E-2,-1.7912093E-1,1.0438472E-2,3.3718962E-2,5.884776E-1,-3.3126566E-1,8.0313236E-2,-3.9758133E-3,3.9636078E-1,1.7714154E-2,7.266004E-3,-4.594651E-2,-5.984109E-1,-2.9869424E-3,-1.5274551E-2,-9.15608E-2,4.5843703E-1,5.0113004E-1,3.649206E-2,-5.3033483E-1,-2.0539795E-1,6.5555624E-3,-1.6159955E-1,8.782689E-3,2.4212084E-3,1.3212122E-2,6.252333E-2,5.899339E-1,1.8433088E-1,5.941954E-2,-2.594915E-1,8.992081E-3,-2.9283093E-4,-1.2513766E-2,-2.426378E-3,-2.6100716E-3,-2.0888261E-2,-1.0292102E-2,-1.1080289E-3,-1.4637076E-2,-3.9304746E-3,2.1011003E-3,-8.5484E-3,1.46432705E-2,5.4248264E-3,5.211177E-3,-7.199129E-4,-5.785338E-3,-1.358212E-4,-3.3019134E-3,4.066077E-3,1.408946E-2,5.08327E-3,-8.0758035E-3,-6.8194774E-4,4.8598284E-3,-3.3192218E-3,4.582595E-3,1.0965114E-2,3.6418578E-3,-2.7644248E-3,-1.2709827E-2,-4.323227E-3,-1.1337057E-3,-7.987141E-3,3.2180888E-3,1.4558559E-2,3.7950557E-4,1.5382802E-2,6.7009067E-4,-1.2631135E-2,-1.0177233E-2,-2.3718474E-3,-2.9197772E-4,-5.967865E-3,-4.328036E-3,8.636652E-4,2.2168872E-3,-1.793558E-3,-5.537605E-4,1.0723399E-2,1.05215E-2,1.8814139E-3,-3.921735E-3,2.86823E-3,-6.815339E-3,2.5123847E-3],"categories":[],"categories_nodes":[],"categories_segments":[],"categories_sizes":[],"default_left":[0,0,0,0,0,0,0,0,0,0,0,0,0,0,0,0,0,0,0,0,0,0,0,0,0,0,0,0,0,0,0,0,0,0,0,0,0,0,0,0,0,0,0,0,0,0,0,0,0,0,0,0,0,0,0,0,0,0,0,0,0,0,0,0,0,0,0,0,0,0,0,0,0,0,0,0,0,0,0,0,0,0,0,0,0,0,0,0,0,0,0,0,0,0,0,0,0,0,0,0,0,0,0,0,0,0,0,0,0,0,0,0,0,0,0,0,0,0,0,0,0,0,0,0,0,0,0,0,0,0,0,0,0,0,0,0,0,0,0,0,0,0,0],"id":13,"left_children":[1,3,5,7,9,11,-1,13,15,17,19,21,23,-1,25,27,29,31,33,35,37,39,41,43,45,47,49,51,53,55,57,59,61,63,65,67,69,71,73,75,-1,77,79,81,83,-1,85,-1,-1,87,89,91,93,95,97,99,101,103,-1,105,107,109,111,-1,113,-1,-1,115,117,-1,-1,119,121,123,125,127,129,-1,131,-1,-1,-1,133,135,137,139,141,-1,-1,-1,-1,-1,-1,-1,-1,-1,-1,-1,-1,-1,-1,-1,-1,-1,-1,-1,-1,-1,-1,-1,-1,-1,-1,-1,-1,-1,-1,-1,-1,-1,-1,-1,-1,-1,-1,-1,-1,-1,-1,-1,-1,-1,-1,-1,-1,-1,-1,-1,-1,-1,-1,-1,-1],"loss_changes":[3.727211E0,3.749235E0,4.174534E0,4.237201E0,4.0234303E0,3.3199074E0,0E0,3.6801546E0,4.3677745E0,3.9891224E0,3.7700884E0,2.0712316E0,4.0036125E0,0E0,3.717906E0,5.191313E0,4.214534E0,2.8592255E0,2.1330614E0,2.19057E0,3.85378E0,1.5143888E0,1.5305347E0,3.4711752E0,2.6717567E0,1.2402372E0,3.082963E0,2.825122E0,6.3828382E0,3.1673687E0,2.5339367E0,2.778176E0,1.9305043E0,2.0075488E0,1.8837452E-1,2.4167626E0,9.0881824E-1,4.0718026E0,5.2487736E0,8.563614E-1,0E0,1.0409216E0,2.0143533E-1,3.2480276E0,4.0516806E0,0E0,2.2749438E0,0E0,0E0,2.8796663E0,1.5859983E0,2.5884738E0,2.3870475E0,3.3553905E0,3.0509918E0,2.638483E-1,1.6779869E0,2.591747E0,0E0,1.2652105E0,8.692093E-1,1.0145731E0,1.5342344E0,0E0,9.583664E-1,0E0,0E0,1.3599628E0,3.9151788E-1,0E0,0E0,3.1525366E0,1.406337E0,5.227948E0,3.2870984E0,4.0553904E-1,7.711383E-1,0E0,4.3363434E-1,0E0,0E0,0E0,3.157947E0,1.3336077E0,3.6155007E0,3.0947814E0,2.0121849E0,0E0,0E0,0E0,0E0,0E0,0E0,0E0,0E0,0E0,0E0,0E0,0E0,0E0,0E0,0E0,0E0,0E0,0E0,0E0,0E0,0E0,0E0,0E0,0E0,0E0,0E0,0E0,0E0,0E0,0E0,0E0,0E0,0E0,0E0,0E0,0E0,0E0,0E0,0E0,0E0,0E0,0E0,0E0,0E0,0E0,0E0,0E0,0E0,0E0,0E0,0E0,0E0,0E0,0E0,0E0,0E0],"parents":[2147483647,0,0,1,1,2,2,3,3,4,4,5,5,7,7,8,8,9,9,10,10,11,11,12,12,14,14,15,15,16,16,17,17,18,18,19,19,20,20,21,21,22,22,23,23,24,24,25,25,26,26,27,27,28,28,29,29,30,30,31,31,32,32,33,33,34,34,35,35,36,36,37,37,38,38,39,39,41,41,42,42,43,43,44,44,46,46,49,49,50,50,51,51,52,52,53,53,54,54,55,55,56,56,57,57,59,59,60,60,61,61,62,62,64,64,67,67,68,68,71,71,72,72,73,73,74,74,75,75,76,76,78,78,82,82,83,83,84,84,85,85,86,86],"right_children":[2,4,6,8,10,12,-1,14,16,18,20,22,24,-1,26,28,30,32,34,36,38,40,42,44,46,48,50,52,54,56,58,60,62,64,66,68,70,72,74,76,-1,78,80,82,84,-1,86,-1,-1,88,90,92,94,96,98,100,102,104,-1,106,108,110,112,-1,114,-1,-1,116,118,-1,-1,120,122,124,126,128,130,-1,132,-1,-1,-1,134,136,138,140,142,-1,-1,-1,-1,-1,-1,-1,-1,-1,-1,-1,-1,-1,-1,-1,-1,-1,-1,-1,-1,-1,-1,-1,-1,-1,-1,-1,-1,-1,-1,-1,-1,-1,-1,-1,-1,-1,-1,-1,-1,-1,-1,-1,-1,-1,-1,-1,-1,-1,-1,-1,-1,-1,-1,-1,-1],"split_conditions":[2.886562E-1,-2.0146132E-1,4.5645647E0,-2.2486035E-2,-7.919119E-1,-1.4682788E0,-1.5536854E-2,-2.4042313E0,-1.2079416E-1,1.2920426E-1,-6.883169E-1,-5.9448533E-2,1.3672103E-1,1.530261E-2,-2.0468013E0,4.0590566E-1,-3.4638438E-1,-1.3871281E-1,1.412356E0,3.1378355E-2,-1.2748122E-1,4.2043686E-1,-1.1548053E-1,-6.9054626E-2,-1.1958089E0,1.2679538E-1,2.2916956E0,-1.6207353E0,9.51698E-1,-4.1890198E-1,1.5027919E0,-5.210839E-2,-3.7135604E-1,-1.4871153E0,-1.1078973E-1,9.853589E-1,-4.7006428E-1,1.9516426E0,-1.1242362E0,-6.8100876E-1,4.4224444E-3,-2.0386368E-1,4.1066813E-1,-1.1706855E0,-9.7388256E-1,-1.1554374E-2,7.448797E-1,-1.3143692E-2,-2.2227303E-3,-3.8777027E-1,-4.453708E-1,-1.9618529E-1,-2.0716918E-1,4.1119716E-1,-1.3238044E-1,-3.4226008E-2,-2.1887316E-1,-1.4042886E-1,1.0438472E-2,-4.9047443E-1,